	X1			X2				X3			WeightedX
[ 0.750072    0.97740794  0.88565752]	-0.0565267567139
[ 0.87791369  0.01925101  0.50671112]	-0.0356143807048
[ 0.7773246   0.99406596  0.82224385]	-0.0538000553462
[ 0.18115828  0.46074944  0.52547661]	-0.0103741596695
[ 0.11456412  0.06755465  0.12892049]	0.0176263020672
[ 0.58677353  0.1652503   0.11822981]	-0.000813222780855
[ 0.76959769  0.12516782  0.59915342]	-0.0372565934515
[ 0.54369991  0.45433488  0.65246238]	-0.0325166579967
[ 0.98553377  0.71586258  0.25141846]	-0.0264731728387
[ 0.7150015   0.46331687  0.27954247]	-0.01664952949
[ 0.72552636  0.37188198  0.93980878]	-0.0570017356183
[ 0.682014    0.96478052  0.09560321]	-0.00566314692077
[ 0.52088163  0.2375505   0.51791468]	-0.0227532721565
[ 0.61524783  0.60601982  0.53193416]	-0.028486031889
[ 0.42648481  0.93833146  0.1634313 ]	0.000455994098701
[ 0.41073917  0.9049789   0.90568911]	-0.0440213107264
[ 0.89887778  0.47608791  0.63304711]	-0.0455357315078
[ 0.50867995  0.21183829  0.45071171]	-0.0180964305574
[ 0.03862342  0.11299619  0.0453861 ]	0.0255974949969
[ 0.62561091  0.59447349  0.17497334]	-0.00712331706325
[ 0.5921459   0.96432492  0.62316171]	-0.0342150545991
[ 0.64057125  0.09986445  0.79190843]	-0.0437838481954
[ 0.40622483  0.94019302  0.31772115]	-0.00814007844544
[ 0.21636267  0.75247915  0.33284225]	-0.000932650660095
[ 0.72448629  0.81055242  0.60060432]	-0.0376392414944
[ 0.82136425  0.13570284  0.5997647 ]	-0.0393861219942
[ 0.24411622  0.35025814  0.63607231]	-0.0192784576067
[ 0.5176847   0.02817519  0.8726597 ]	-0.0435926859201
[ 0.50321329  0.85188941  0.78402034]	-0.0401297149411
[ 0.7450516   0.17201655  0.90482053]	-0.0550385560478
[ 0.47551534  0.35801332  0.94353112]	-0.0472363355486
[ 0.57847758  0.67031651  0.46376597]	-0.0230670571546
[ 0.95209842  0.63791982  0.00390768]	-0.00983078085494
[ 0.42337158  0.4260067   0.63808589]	-0.0267659520313
[ 0.14558821  0.81673295  0.85693336]	-0.0302305508465
[ 0.34669784  0.67099947  0.18345208]	0.00322703820065
[ 0.64429737  0.56953024  0.5932786 ]	-0.0332669341334
[ 0.15709507  0.07909617  0.82081636]	-0.0262399534503
[ 0.92982068  0.51709478  0.52979705]	-0.0406039787823
[ 0.3626171   0.23537187  0.02977102]	0.0132812532703
[ 0.04560615  0.36617357  0.3010134 ]	0.00897927489212
[ 0.40251821  0.39622889  0.18516069]	0.00173918971936
[ 0.65809177  0.70899734  0.09089861]	-0.0036447437648
[ 0.53662943  0.66624586  0.37273567]	-0.0158451881797
[ 0.43657043  0.21530426  0.39223186]	-0.0116756274209
[ 0.78727326  0.09406925  0.66673646]	-0.0419812242731
[ 0.55535924  0.47994493  0.79437013]	-0.0417013390354
[ 0.16513731  0.30937084  0.54962659]	-0.0107458438785
[ 0.23653782  0.44928268  0.01150036]	0.0187594579648
[ 0.16129261  0.9098761   0.58483802]	-0.0145681366406
[ 0.95919298  0.23107384  0.4908238 ]	-0.0385273183211
[ 0.83682405  0.20635018  0.03186625]	-0.00563013066305
[ 0.46079099  0.85309757  0.03980089]	0.0068800008566
[ 0.19441165  0.57364213  0.5331213 ]	-0.0117113829455
[ 0.2102057   0.01802662  0.90114709]	-0.0330598072815
[ 0.32267396  0.35684654  0.51362748]	-0.0149677069351
[ 0.38208077  0.93194708  0.78739472]	-0.0357585312511
[ 0.16501933  0.50638498  0.66077315]	-0.0181109506966
[ 0.30017351  0.80195906  0.94545731]	-0.0417289817982
[ 0.51204959  0.51105563  0.57564653]	-0.0267516791308
[ 0.19411127  0.25639426  0.2172153 ]	0.00850738036871
[ 0.47414328  0.55111681  0.08668932]	0.00441365438596
[ 0.93642277  0.91034723  0.52832914]	-0.0419762770174
[ 0.29317971  0.0187649   0.61762842]	-0.0190971182124
[ 0.63406859  0.415173    0.79063689]	-0.0444089333918
[ 0.26613875  0.59037716  0.45781682]	-0.0100307063511
[ 0.27631463  0.07992046  0.9597451 ]	-0.0394482674229
[ 0.91481404  0.23346787  0.15338154]	-0.0162172447503
[ 0.41820356  0.99776026  0.87349901]	-0.0426407781839
[ 0.21064277  0.07330796  0.23257311]	0.00747232810596
[ 0.03019594  0.25428026  0.33635909]	0.00778105058757
[ 0.08737129  0.63677391  0.75596088]	-0.021215487691
[ 0.10076999  0.41834231  0.5504868 ]	-0.00856880601667
[ 0.74301304  0.05544287  0.79500878]	-0.0479141650856
[ 0.92462839  0.02866803  0.28547257]	-0.0240281587929
[ 0.59828249  0.66952554  0.32337812]	-0.0153028093164
[ 0.92155033  0.92450584  0.1297953 ]	-0.0171557052158
[ 0.3384861   0.18707409  0.03931309]	0.0138077188763
[ 0.48438478  0.21411343  0.37026033]	-0.0122367599919
[ 0.90958798  0.93286482  0.41390436]	-0.0340081744619
[ 0.38186721  0.5736789   0.20406505]	0.000868707568412
[ 0.62856413  0.60823614  0.73442385]	-0.0413549468079
[ 0.52077682  0.08559485  0.66248374]	-0.0310904875323
[ 0.45263327  0.78612482  0.53738045]	-0.0228951758178
[ 0.33129288  0.72647502  0.49990699]	-0.0156020273415
[ 0.01869718  0.88955727  0.87833715]	-0.0267061819815
[ 0.50061504  0.60681055  0.27744447]	-0.00842719027575
[ 0.81360064  0.49628483  0.92519191]	-0.0599959448381
[ 0.79135337  0.46668876  0.94407591]	-0.0601704156977
[ 0.33542907  0.54734354  0.03176629]	0.0132906098347
[ 0.24586746  0.22345404  0.41962616]	-0.00577936044921
[ 0.74862168  0.30044329  0.21077398]	-0.0133027604056
[ 0.79531748  0.59481501  0.84024449]	-0.0543951786908
[ 0.76824992  0.35270736  0.64926015]	-0.0409483229906
[ 0.16283746  0.98432676  0.39182273]	-0.00310141902849
[ 0.98596816  0.92802382  0.34352679]	-0.0327469608448
[ 0.15841456  0.1770174   0.74556757]	-0.0220081417471
[ 0.2113212   0.10922901  0.2597823 ]	0.00567869442437
[ 0.61849233  0.97784225  0.93546261]	-0.0543248092629
[ 0.11492012  0.08400298  0.02940001]	0.0236230686014
[ 0.53359775  0.33533403  0.57764123]	-0.027194983567
[ 0.53957765  0.47841183  0.27334337]	-0.00933657403014
[ 0.19083482  0.78998751  0.83350947]	-0.0305231298455
[ 0.59731055  0.99324001  0.41088174]	-0.0215802931946
[ 0.81188662  0.34033439  0.18532665]	-0.0143923533119
[ 0.96977217  0.27306834  0.9617353 ]	-0.0677562366678
[ 0.84886167  0.53506473  0.47312562]	-0.033985346033
[ 0.42719656  0.61629888  0.41723658]	-0.0140479856888
[ 0.02071557  0.65473772  0.79908085]	-0.0212436535274
[ 0.89616495  0.31909347  0.3895866 ]	-0.0301216784613
[ 0.64268368  0.9230828   0.65615667]	-0.0381100819724
[ 0.06138388  0.43965075  0.15823152]	0.0168231683168
[ 0.67314625  0.43273619  0.46984837]	-0.0264807340724
[ 0.86352613  0.59807499  0.60219103]	-0.0426215145332
[ 0.36270119  0.37262538  0.12312478]	0.00717393546242
[ 0.52526293  0.95204585  0.25905129]	-0.00934047410095
[ 0.21391919  0.82755606  0.87909182]	-0.034332465061
[ 0.77594286  0.55419688  0.14774494]	-0.0113250721988
[ 0.342849    0.47732223  0.93957547]	-0.0420793839002
[ 0.76111429  0.10429287  0.584162  ]	-0.035942311311
[ 0.77416582  0.04302933  0.72044588]	-0.0445750273243
[ 0.2215166   0.30093823  0.96914096]	-0.0385135174103
[ 0.60793047  0.2382873   0.47845813]	-0.0238168294037
[ 0.29281453  0.63150497  0.29480505]	-0.00128984359951
[ 0.90208809  0.48425916  0.87275   ]	-0.0602869989998
[ 0.8000047   0.55445913  0.34620667]	-0.0243703620982
[ 0.17224817  0.34719283  0.31780956]	0.0029741713783
[ 0.40325964  0.09622323  0.36702432]	-0.0084516736347
[ 0.48193714  0.19261703  0.85613985]	-0.0416652667644
[ 0.5718729   0.35504737  0.3289214 ]	-0.0136305913195
[ 0.70151864  0.65244352  0.38897866]	-0.0233545334089
[ 0.89452092  0.41022337  0.1551343 ]	-0.0160552709001
[ 0.81467929  0.99429623  0.05227901]	-0.00839431610028
[ 0.28223067  0.30489847  0.77756622]	-0.0292744099758
[ 0.60982135  0.61466071  0.66368566]	-0.0363204594738
[ 0.45378034  0.19771978  0.72185154]	-0.0323817103213
[ 0.44536957  0.4640953   0.14451682]	0.00230222858629
[ 0.30788528  0.45582947  0.31333668]	-0.00248264997132
[ 0.40111667  0.4299394   0.79132906]	-0.0352252001324
[ 0.83744692  0.98288883  0.30529729]	-0.0246751708254
[ 0.77363673  0.48729945  0.19737065]	-0.0140516848783
[ 0.9268659   0.85496997  0.46819258]	-0.0377646144018
[ 0.47097619  0.16655066  0.29891364]	-0.00721290370785
[ 0.0785451   0.93272486  0.46163155]	-0.00384102485441
[ 0.80412118  0.39973715  0.80675858]	-0.0521114006283
[ 0.69128838  0.9322568   0.80603088]	-0.0492001670468
[ 0.39580455  0.13382407  0.02348441]	0.012652947572
[ 0.31377313  0.65277072  0.90416055]	-0.0393002752672
[ 0.47889514  0.96697642  0.43070281]	-0.0179947409341
[ 0.32829989  0.03303183  0.43693686]	-0.00953367734205
[ 0.55387025  0.21118549  0.19884766]	-0.00455365949419
[ 0.80970058  0.06704408  0.02684491]	-0.00382015265551
[ 0.71183081  0.18728564  0.20521928]	-0.0111552816604
[ 0.9167049   0.25964408  0.13804703]	-0.0154383872138
[ 0.67120876  0.62540866  0.19229258]	-0.0100871049946
[ 0.08696256  0.08967057  0.92828973]	-0.0300265289998
[ 0.78610399  0.60124205  0.46013556]	-0.0308983757154
[ 0.20659872  0.14483515  0.51749619]	-0.00993743402495
[ 0.53938252  0.68953093  0.27100617]	-0.00983012774554
[ 0.15407567  0.627659    0.15839261]	0.0125512531577
[ 0.15920383  0.70076677  0.1649055 ]	0.0117276199287
[ 0.32105228  0.1968719   0.93281426]	-0.0399451120284
[ 0.59007739  0.24135557  0.25201303]	-0.00932452042857
[ 0.09591898  0.55113293  0.33124777]	0.00457168411766
[ 0.7133842   0.10382329  0.6740876 ]	-0.0395180669694
[ 0.50157816  0.64737565  0.46327135]	-0.0199065849271
[ 0.53560332  0.8080637   0.63032803]	-0.0319248399091
[ 0.09006063  0.19701613  0.39729435]	0.0018620396175
[ 0.38969149  0.23715732  0.6339801 ]	-0.0245997480848
[ 0.08282756  0.93984893  0.04909973]	0.0210911935878
[ 0.57052721  0.7201066   0.29366463]	-0.0125427934871
[ 0.64996139  0.37910029  0.30982741]	-0.0156487736021
[ 0.32458527  0.27594164  0.83744863]	-0.0345187444725
[ 0.02838534  0.43747759  0.86531496]	-0.0249203537897
[ 0.14114415  0.36190241  0.5193019 ]	-0.00810427372663
[ 0.42595081  0.11339079  0.31899779]	-0.00648211332589
[ 0.6114719   0.87830992  0.55892746]	-0.0308098885974
[ 0.68073129  0.36146929  0.1770048 ]	-0.00873030811677
[ 0.49612074  0.11563554  0.93671622]	-0.046902369284
[ 0.44839246  0.91375864  0.25345697]	-0.00582377986929
[ 0.44390504  0.27590913  0.08094918]	0.0068057080492
[ 0.04419396  0.43032535  0.52147923]	-0.00458711065143
[ 0.83578547  0.14686594  0.01532372]	-0.0043999541092
[ 0.54438407  0.71093711  0.84491644]	-0.045047220226
[ 0.47911574  0.99146875  0.55307162]	-0.0255308043605
[ 0.13612375  0.55785188  0.18770186]	0.0116935061422
[ 0.34697199  0.67354749  0.78955659]	-0.0337051420186
[ 0.56451161  0.97309429  0.682088  ]	-0.0367307949275
[ 0.65046759  0.57845273  0.05926151]	-0.00101652470915
[ 0.25158345  0.85025679  0.39906107]	-0.00666537135857
[ 0.88914361  0.54338708  0.15892168]	-0.0164779200674
[ 0.69329026  0.50901351  0.46951828]	-0.0274948674067
[ 0.81391834  0.75029852  0.38031406]	-0.0275984044403
[ 0.29175572  0.7215497   0.66411577]	-0.0240143156914
[ 0.83264678  0.75609341  0.53356886]	-0.0376950740939
[ 0.66891687  0.24141546  0.23814878]	-0.0116179462916
[ 0.87402145  0.45570965  0.70443729]	-0.0488322476947
[ 0.38656787  0.14235623  0.56422807]	-0.0199383072817
[ 0.77179243  0.79779779  0.36908096]	-0.0253825862156
[ 0.60640653  0.82361864  0.31273698]	-0.0154478502958
[ 0.94731578  0.0465119   0.26295241]	-0.0236139207853
[ 0.9965338   0.82437803  0.46621641]	-0.0403236006955
[ 0.74407345  0.37716292  0.48862579]	-0.0302776275849
[ 0.88967692  0.79538797  0.61038212]	-0.0447626813826
[ 0.45099813  0.69904588  0.53058641]	-0.0221508377207
[ 0.81717056  0.49221275  0.1769266 ]	-0.014554101677
[ 0.36700464  0.31893929  0.83925591]	-0.036448090299
[ 0.35436049  0.30390016  0.14589805]	0.00632844753507
[ 0.42501765  0.92908456  0.57762547]	-0.0246830367932
[ 0.59092473  0.113072    0.53788623]	-0.0263776277261
[ 0.25632621  0.27097672  0.63529397]	-0.019475268616
[ 0.12060026  0.39157728  0.46367702]	-0.00398943588332
[ 0.43952305  0.96128333  0.12981626]	0.00191438083027
[ 0.89568951  0.09728651  0.61814708]	-0.0433464985488
[ 0.44335356  0.35611736  0.32209261]	-0.00810320987669
[ 0.8022749   0.70054749  0.55257933]	-0.0374747915511
[ 0.68286824  0.96875943  0.99293214]	-0.0603591779876
[ 0.43708492  0.05639159  0.66277259]	-0.0276883140598
[ 0.13177073  0.35169748  0.18114075]	0.0128948613857
[ 0.47229061  0.43414167  0.4472811 ]	-0.0171170518376
[ 0.998931    0.6632262   0.23821118]	-0.0260415099232
[ 0.92613608  0.04312661  0.35627752]	-0.0284444669921
[ 0.5516116   0.60930073  0.97961572]	-0.0532285605952
[ 0.17819039  0.0168104   0.12092505]	0.0157357890709
[ 0.05130506  0.16866544  0.80544785]	-0.0213668665214
[ 0.59386524  0.78124255  0.33227532]	-0.0160094827568
[ 0.21576319  0.79396556  0.37868317]	-0.0038271202381
[ 0.17244156  0.69330182  0.19620218]	0.0093174929798
[ 0.33506274  0.92899745  0.69017681]	-0.0279574880298
[ 0.38378538  0.44561612  0.32634315]	-0.00626427866375
[ 0.16075899  0.82863577  0.0291445 ]	0.0195441143449
[ 0.53133289  0.73821995  0.9663581 ]	-0.0520071415676
[ 0.36083248  0.66947503  0.76389889]	-0.0326817119997
[ 0.30963547  0.07304951  0.64754891]	-0.0217397636733
[ 0.93058991  0.14589092  0.38890071]	-0.0309218724835
[ 0.14371045  0.56986743  0.2253589 ]	0.00906151967222
[ 0.38450162  0.61155584  0.57858018]	-0.0221606597395
[ 0.57215     0.72373711  0.76563741]	-0.0413629398205
[ 0.77694485  0.98144608  0.0822283 ]	-0.0086773991597
[ 0.50401463  0.13301046  0.07767406]	0.00504863029064
[ 0.98748552  0.0022927   0.51001867]	-0.0401248036537
[ 0.0212377   0.79472386  0.96309579]	-0.0316802038576
[ 0.03963345  0.29318095  0.21127563]	0.014904801694
[ 0.8900432   0.17946457  0.46946156]	-0.0343169603513
[ 0.87257332  0.89648122  0.66599128]	-0.0477769720403
[ 0.79527434  0.54108333  0.49226519]	-0.0330367074182
[ 0.50446342  0.68939128  0.30741964]	-0.0106576927608
[ 0.70947089  0.6554283   0.19120458]	-0.0116351052455
[ 0.62897143  0.06696757  0.8912975 ]	-0.0492749873932
[ 0.75515146  0.99402252  0.41817185]	-0.0283083446349
[ 0.28877254  0.22011351  0.32451312]	-0.0016840350241
[ 0.82269457  0.16809561  0.01610694]	-0.00399139458111
[ 0.93925636  0.98158186  0.61669393]	-0.047687897292
[ 0.38411087  0.88421064  0.65645322]	-0.0277190722983
[ 0.1450808   0.62557833  0.46844619]	-0.00596758153268
[ 0.73908112  0.31272124  0.19765354]	-0.0121614307494
[ 0.00260426  0.79748962  0.62490318]	-0.0103501720308
[ 0.69036474  0.78596667  0.31897467]	-0.0190542787241
[ 0.51337581  0.67013122  0.7237134 ]	-0.0363071466327
[ 0.02988546  0.50504564  0.31682775]	0.0082183861926
[ 0.08409916  0.58947141  0.55299647]	-0.00857993460514
[ 0.54484969  0.25424242  0.94539086]	-0.0497925565537
[ 0.35309243  0.36706102  0.35153896]	-0.00633777285486
[ 0.87077794  0.56436258  0.21125728]	-0.0189983502477
[ 0.46892839  0.11398559  0.98675646]	-0.0488627443999
[ 0.69678834  0.75692981  0.41009805]	-0.0247710694141
[ 0.31018133  0.54674598  0.99161562]	-0.0441603457954
[ 0.67482734  0.25080492  0.00219416]	0.0024885177982
[ 0.88564355  0.72570595  0.58603537]	-0.0429069293445
[ 0.3991509   0.7873396   0.39121934]	-0.0118687832472
[ 0.94645361  0.11290015  0.05568254]	-0.0111586843423
[ 0.75222367  0.53234817  0.4641225 ]	-0.0295827950943
[ 0.57279199  0.97200914  0.33563281]	-0.0159569109
[ 0.38813737  0.11375303  0.46513946]	-0.0138787833643
[ 0.7226775   0.77363174  0.43585256]	-0.0274208381267
[ 0.82232184  0.320967    0.76304167]	-0.0499331018395
[ 0.55096657  0.15303043  0.29477617]	-0.0101031184004
[ 0.86875287  0.01745556  0.86598287]	-0.0571250077737
[ 0.25746313  0.38713019  0.92484499]	-0.0375091311602
[ 0.08684214  0.6802455   0.19802312]	0.0126530431567
[ 0.43180353  0.64110682  0.73085655]	-0.0334073209887
[ 0.23147372  0.82597001  0.11880055]	0.0112776602521
[ 0.582856    0.79831429  0.71485461]	-0.0389235659776
[ 0.79207798  0.31242083  0.22466077]	-0.01591447612
[ 0.64400269  0.74414612  0.02898263]	0.000579665186023
[ 0.62419965  0.14457174  0.67692679]	-0.0362658918172
[ 0.77692599  0.95811838  0.49985644]	-0.0340402773309
[ 0.71484154  0.40419558  0.27290337]	-0.0160585736396
[ 0.83715497  0.00396789  0.98301472]	-0.0629539432104
[ 0.42203389  0.64520949  0.26348859]	-0.00456697349887
[ 0.28151792  0.07106717  0.21708439]	0.00560181208147
[ 0.0848272   0.39443985  0.57453141]	-0.00932583454131
[ 0.68381617  0.9480126   0.69168419]	-0.0419867867909
[ 0.88705648  0.01177568  0.71810953]	-0.0488302190942
[ 0.51497449  0.12155282  0.31500316]	-0.00980663526191
[ 0.72386955  0.1940351   0.45461754]	-0.0268440402495
[ 0.20051473  0.08717239  0.57120485]	-0.0127905148969
[ 0.22343126  0.7739596   0.98371809]	-0.0409196567782
[ 0.23767753  0.80629001  0.47107314]	-0.0103636450298
[ 0.98926897  0.40338389  0.95154781]	-0.0683090212195
[ 0.01994331  0.9965635   0.07615504]	0.0217731729448
[ 0.2038115   0.01828205  0.55027558]	-0.0114370320135
[ 0.83380605  0.48432776  0.11405959]	-0.0113633324123
[ 0.92441161  0.3702764   0.26394672]	-0.0237500433513
[ 0.18724954  0.00989257  0.14211818]	0.0141056258195
[ 0.73140652  0.42835196  0.30843066]	-0.018955180553
[ 0.02129339  0.64194748  0.61969574]	-0.0103025866045
[ 0.10263082  0.77013377  0.74318733]	-0.0214514223275
[ 0.2383445   0.08377539  0.94237337]	-0.0368909151004
[ 0.34763795  0.28759767  0.04148576]	0.0130046987866
[ 0.38722946  0.63482843  0.72110038]	-0.0310200631967
[ 0.39337068  0.76644862  0.71240418]	-0.0311361295407
[ 0.32724431  0.14816807  0.7500881 ]	-0.0289145039497
[ 0.33348525  0.01316232  0.8729212 ]	-0.0362321592709
[ 0.50115661  0.63247757  0.49721877]	-0.0219118819299
[ 0.68517663  0.05192564  0.18104693]	-0.00820965937056
[ 0.6476855   0.76708543  0.07878789]	-0.00267012244971
[ 0.63731172  0.58266097  0.57802195]	-0.0320997818047
[ 0.34308875  0.06951904  0.65225655]	-0.0233470662064
[ 0.48117805  0.22164423  0.80862163]	-0.0388295593746
[ 0.01014764  0.15079606  0.32625348]	0.00950988731403
[ 0.44708477  0.01873861  0.51145034]	-0.0187555283436
[ 0.62275545  0.82530985  0.55660117]	-0.0309556810696
[ 0.80546438  0.80328511  0.23572461]	-0.0186175917198
[ 0.86539706  0.38832734  0.9245707 ]	-0.061690338419
[ 0.5765187   0.70228198  0.00420235]	0.00490218636671
[ 0.33263853  0.93974434  0.31169449]	-0.00484311821347
[ 0.69093196  0.63194795  0.66962249]	-0.0399627361276
[ 0.47401341  0.18537369  0.64338227]	-0.0283702921965
[ 0.15119639  0.98548017  0.56997813]	-0.0134918245623
[ 0.45027464  0.55134513  0.11685544]	0.0035256681362
[ 0.77389129  0.39450793  0.06263987]	-0.00557342181615
[ 0.8455456   0.01730049  0.80144584]	-0.0522704533891
[ 0.35620405  0.63350033  0.30918321]	-0.00469434365432
[ 0.72576595  0.60340864  0.92354996]	-0.0567269420714
[ 0.2837071   0.09836117  0.31280711]	-0.00039831449698
[  2.22455613e-04   1.28440055e-01   7.37968152e-01]	-0.0151015591901
[ 0.45423985  0.32745865  0.85489041]	-0.0408979951996
[ 0.34121647  0.67184298  0.31964132]	-0.00485170365985
[ 0.0620922   0.65314885  0.93770838]	-0.0313283105479
[ 0.1098744   0.74195501  0.7514468 ]	-0.0221568123675
[ 0.62925986  0.8943223   0.52421586]	-0.0294525878357
[ 0.22778416  0.27283939  0.20639263]	0.00777627628732
[ 0.03134856  0.34261552  0.70731113]	-0.0151261803147
[ 0.70115116  0.4062265   0.19667722]	-0.0108775310946
[ 0.58095658  0.65905735  0.28556654]	-0.0122785320447
[ 0.14656568  0.00262488  0.62640345]	-0.0137474602079
[ 0.16532284  0.90885946  0.08396419]	0.0157792212743
[ 0.74576752  0.66360155  0.32765775]	-0.0214149281887
[ 0.76308794  0.52943333  0.1114407 ]	-0.0085269471029
[ 0.22117816  0.78006573  0.14266392]	0.0103740041913
[ 0.20183192  0.96060888  0.23994815]	0.00466860665477
[ 0.70418689  0.92928718  0.51526447]	-0.0319959337952
[ 0.38440345  0.56947948  0.71463914]	-0.0303148508594
[ 0.26357357  0.18060665  0.00256592]	0.0190467769943
[ 0.68016243  0.45644457  0.97421918]	-0.057549870955
[ 0.66395431  0.17175074  0.31683798]	-0.0160004517338
[ 0.04889016  0.02221482  0.77859763]	-0.0191890045041
[ 0.15922661  0.70694907  0.57039689]	-0.0129877227968
[ 0.62812362  0.28338854  0.43718706]	-0.02224444515
[ 0.0516649   0.04058767  0.66242519]	-0.0122802131783
[ 0.00222005  0.64923773  0.16958771]	0.0178471270783
[ 0.27351276  0.11297518  0.38524681]	-0.00444894530039
[ 0.81792508  0.20026749  0.08209507]	-0.00791853283627
[ 0.80988701  0.77633458  0.69536678]	-0.0467049604554
[ 0.5556199   0.15052367  0.62133988]	-0.0301693322509
[ 0.80296692  0.67543968  0.54739235]	-0.0371098815517
[ 0.06537013  0.05433699  0.73275039]	-0.0171505721304
[ 0.13117316  0.74112169  0.33052356]	0.00263352245796
[ 0.21389945  0.48625339  0.06455664]	0.0163164134678
[ 0.91682577  0.02037552  0.75164057]	-0.0520833183134
[ 0.22256657  0.9295379   0.55302311]	-0.0151290138532
[ 0.1913973   0.029813    0.18196412]	0.0114530902083
[ 0.17217087  0.37807913  0.80258318]	-0.02664102165
[ 0.65093252  0.72509832  0.32469197]	-0.0176475980082
[ 0.88190546  0.2501457   0.96700577]	-0.0645104600465
[ 0.23858753  0.0092932   0.81084905]	-0.0286632971881
[ 0.89043347  0.92346545  0.65376658]	-0.0478255116618
[ 0.04394269  0.57126172  0.22949184]	0.0127760700944
[ 0.16687939  0.59849558  0.43149178]	-0.00450191147184
[ 0.58123761  0.78488273  0.2509318 ]	-0.0105639788439
[ 0.27858419  0.69444001  0.35612709]	-0.00465007569425
[ 0.20057677  0.61189887  0.33384886]	6.28858268078e-05
[ 0.72858385  0.94814523  0.49212551]	-0.0316151381807
[ 0.17335323  0.84866485  0.55719688]	-0.0131780731232
[ 0.32581884  0.28468355  0.7778206 ]	-0.0309629720962
[ 0.03524644  0.53953378  0.88421291]	-0.026655497264
[ 0.74167272  0.48199665  0.44617543]	-0.0279163533387
[ 0.1859675   0.57056818  0.65580101]	-0.0188375004265
[ 0.44461733  0.08210721  0.33097746]	-0.00785921320299
[ 0.31509139  0.2669397   0.8838066 ]	-0.0369367997275
[ 0.76002741  0.89897365  0.69565725]	-0.0451122652556
[ 0.98396536  0.22199493  0.518319  ]	-0.0411600541906
[ 0.31514772  0.19750077  0.9334782 ]	-0.0397524783612
[ 0.76337945  0.56459553  0.70610952]	-0.0448627867768
[ 0.65824909  0.2523142   0.51666493]	-0.0281890544917
[ 0.30246955  0.92999175  0.891426  ]	-0.0389200439126
[ 0.84470448  0.7342552   0.89093708]	-0.0598731089022
[ 0.79855725  0.7190607   0.64059832]	-0.0427438910951
[ 0.53602368  0.13803435  0.76548133]	-0.0381300010074
[ 0.60330981  0.70574474  0.17108914]	-0.00633847433722
[ 0.94021553  0.26047378  0.22784152]	-0.0218453230538
[ 0.05622749  0.36626929  0.39833592]	0.00262905968039
[ 0.09746538  0.93608356  0.25441314]	0.00801594929359
[ 0.06198226  0.37639805  0.723087  ]	-0.0174091174711
[ 0.56048397  0.37675384  0.57458375]	-0.028205060024
[ 0.39922774  0.55221742  0.32220663]	-0.0069519272011
[ 0.88029252  0.09348818  0.8166557 ]	-0.054811899693
[ 0.5704021   0.89539548  0.69586429]	-0.0375673483002
[ 0.50720952  0.62881228  0.28859338]	-0.00943571418953
[ 0.0969227   0.83494281  0.36071249]	0.00187197081031
[ 0.14790791  0.05451762  0.53267599]	-0.00825081718537
[ 0.75792268  0.60091325  0.28421133]	-0.0190615376639
[ 0.95562332  0.95836713  0.61715889]	-0.048296801065
[ 0.2079252   0.68764558  0.89759995]	-0.034794557301
[ 0.65728492  0.94697293  0.24661695]	-0.0138218685708
[ 0.3062897   0.37615161  0.74868553]	-0.0286902202927
[ 0.5470178   0.55295135  0.50025087]	-0.0236792472755
[ 0.06788102  0.16600378  0.55211554]	-0.00658977001695
[ 0.93514318  0.69102403  0.90055327]	-0.0639261948011
[ 0.80874949  0.06820395  0.36768528]	-0.024543992577
[ 0.93849649  0.95340447  0.87945019]	-0.0635743578513
[ 0.05547189  0.32696811  0.44105251]	0.000177389739759
[ 0.87373699  0.26853383  0.61723772]	-0.042939560361
[ 0.96903472  0.2244105   0.55240309]	-0.0426490349266
[ 0.1323163   0.14621367  0.79837868]	-0.0240919290661
[ 0.37101991  0.56081144  0.57922741]	-0.0215088287868
[ 0.9518512   0.35278821  0.76914514]	-0.0555567846838
[ 0.74319353  0.07620044  0.69480247]	-0.0418817821313
[ 0.38021786  0.80263906  0.32130272]	-0.00690381780507
[ 0.87498606  0.24505933  0.88505568]	-0.0592285822353
[ 0.74108426  0.34937733  0.95779965]	-0.0586479843671
[ 0.24759709  0.77983612  0.57423168]	-0.0169604170918
[ 0.24004162  0.72482802  0.60281148]	-0.0182326103636
[ 0.89776905  0.23970852  0.61766098]	-0.0438338714984
[ 0.15367646  0.85646473  0.47826751]	-0.00761174199399
[ 0.61089009  0.21801571  0.98384188]	-0.0546521298145
[ 0.72109516  0.28038305  0.8723282 ]	-0.0524366615758
[ 0.19615205  0.06051519  0.28512877]	0.00488723500427
[ 0.10634331  0.69047001  0.94799598]	-0.033829723786
[ 0.97550201  0.93139479  0.26940214]	-0.0278263082039
[ 0.57746692  0.33472083  0.87867618]	-0.0472728897291
[ 0.83836224  0.02532096  0.12424926]	-0.0107658134308
[ 0.95890551  0.76527394  0.01943821]	-0.0114358180242
[ 0.50679667  0.27799816  0.72938156]	-0.0351949822718
[ 0.30292367  0.85964149  0.71950357]	-0.028253063237
[ 0.47750625  0.2776197   0.55194668]	-0.0232218497396
[ 0.70393887  0.22235477  0.87654441]	-0.0518337454905
[ 0.95577479  0.40025907  0.42259694]	-0.0347518848732
[ 0.94651615  0.070685    0.98897927]	-0.0678729130884
[ 0.56240059  0.19085385  0.62262457]	-0.0306403872229
[ 0.41106294  0.17583057  0.00134688]	0.0132658710171
[ 0.66362162  0.28368915  0.70468677]	-0.0399495935857
[ 0.13306716  0.80436857  0.33363896]	0.00217558142757
[ 0.06628192  0.53109967  0.69961394]	-0.0166223127733
[ 0.04742795  0.865384    0.48935543]	-0.00408579429869
[ 0.92375756  0.62603985  0.16870733]	-0.018703435887
[ 0.45299863  0.33775941  0.89975428]	-0.0436123408208
[ 0.35898677  0.86016948  0.11891808]	0.00609153189211
[ 0.28259609  0.6443687   0.9354239 ]	-0.0399379175855
[ 0.51339109  0.73126742  0.29384651]	-0.0103140218994
[ 0.25845422  0.43455484  0.08239344]	0.0136145507423
[ 0.68729327  0.94017051  0.82570221]	-0.0502633388592
[ 0.25114935  0.20348368  0.09826846]	0.0136429240481
[ 0.08358167  0.77954871  0.45745089]	-0.00331984932051
[ 0.41898033  0.11496715  0.36526227]	-0.00902715133517
[ 0.13236162  0.20340963  0.55343779]	-0.00935050979064
[ 0.05698713  0.07843283  0.9856652 ]	-0.0322936500741
[ 0.87386733  0.99148468  0.79877537]	-0.056205049173
[ 0.71359994  0.76827812  0.98462003]	-0.0604647632818
[ 0.80937258  0.38421073  0.988007  ]	-0.0633116050188
[ 0.41104321  0.33846076  0.55582114]	-0.02099824335
[ 0.57375436  0.01919195  0.92842099]	-0.0491927535206
[ 0.31153966  0.94573956  0.28042909]	-0.00211756047509
[ 0.39161847  0.49813716  0.72756026]	-0.0311714144338
[ 0.7933066   0.66123641  0.54648616]	-0.0366269325581
[ 0.87785318  0.70750535  0.00813274]	-0.00734547546483
[ 0.92197765  0.9939166   0.12695687]	-0.0172114630525
[ 0.82600945  0.61415238  0.24693263]	-0.0195412061065
[ 0.69417087  0.06950805  0.20501063]	-0.0100806717182
[ 0.27697545  0.84097734  0.25917764]	0.000871683213939
[ 0.3993757   0.9997898   0.89785854]	-0.0433812294233
[ 0.70254037  0.71144725  0.47151095]	-0.0286015395421
[ 0.7933237   0.39311122  0.08717015]	-0.00783648974585
[ 0.66017426  0.25126791  0.81317185]	-0.046320602821
[ 0.03568638  0.41540032  0.36759106]	0.0051692043716
[ 0.13050923  0.04604829  0.3922423 ]	0.00102024214511
[ 0.9117519   0.40820909  0.24055177]	-0.021937048834
[ 0.14024496  0.45718939  0.23970281]	0.00866938573998
[ 0.14242822  0.14253051  0.52201401]	-0.00765172852971
[ 0.13680538  0.36256628  0.59099991]	-0.0123002396495
[ 0.63656415  0.77010027  0.26214403]	-0.0134036263527
[ 0.05705806  0.05227379  0.48134152]	-0.00150196140552
[ 0.97293929  0.89242843  0.13321204]	-0.0193111497273
[ 0.91519411  0.46258672  0.7950885 ]	-0.0560127030551
[ 0.3274879   0.6602582   0.01521229]	0.0142705794686
[ 0.47843627  0.26865675  0.79251506]	-0.0378828394574
[ 0.86928202  0.21256862  0.87195272]	-0.0581045099174
[ 0.62536171  0.39824297  0.27184898]	-0.0124151344074
[ 0.43363016  0.06283034  0.6979783 ]	-0.0297145829039
[ 0.61524789  0.16933037  0.55676271]	-0.0286667816189
[ 0.91228575  0.64497166  0.56249357]	-0.0422873161397
[ 0.82604384  0.6594818   0.36806729]	-0.027058223235
[ 0.81879697  0.30833082  0.73961745]	-0.0483276934983
[ 0.9981738   0.38056748  0.46823412]	-0.0391586596858
[ 0.50904723  0.89928521  0.19560712]	-0.00467034057894
[ 0.92193804  0.11608042  0.35293867]	-0.0282964714388
[ 0.83115109  0.9636907   0.75930097]	-0.0520162062759
[ 0.04845558  0.38858714  0.49568994]	-0.00305881907842
[ 0.83423257  0.74379071  0.42135821]	-0.0308867256037
[ 0.13209627  0.38437287  0.3683764 ]	0.00137909715303
[ 0.09108979  0.52343854  0.24575877]	0.010054833592
[ 0.33015173  0.21751337  0.66075325]	-0.0238008844534
[ 0.77732012  0.89632483  0.77939755]	-0.0508924211948
[ 0.15204705  0.68003183  0.25722447]	0.00645316902245
[ 0.4283074   0.59978087  0.17484296]	0.000720632048317
[ 0.01184551  0.13579577  0.83919657]	-0.021751655063
[ 0.41234226  0.70862682  0.82437965]	-0.0385344909261
[ 0.31897729  0.82274073  0.53941553]	-0.0178115767379
[ 0.60937704  0.97975638  0.89586413]	-0.0515562178979
[ 0.30928779  0.18214735  0.68110567]	-0.0241022473885
[ 0.9049905   0.06062171  0.73402161]	-0.0506619619169
[ 0.01726862  0.74749395  0.00562199]	0.0269346490604
[ 0.59329369  0.84293239  0.61991432]	-0.0336928561069
[ 0.66982216  0.03334477  0.00681034]	0.00306956701646
[ 0.22990359  0.52551632  0.48977517]	-0.010337244374
[ 0.72682095  0.19557484  0.18531789]	-0.0105650728311
[ 0.18912988  0.03953607  0.85337577]	-0.0293772091049
[ 0.44920354  0.97881253  0.12037682]	0.00205056719914
[ 0.80922037  0.01375811  0.40333463]	-0.0265678851001
[ 0.11943322  0.39240911  0.25942474]	0.00849402222393
[ 0.6367368   0.10665718  0.30823888]	-0.0141950947308
[ 0.67341847  0.83958598  0.68094567]	-0.0405884054215
[ 0.44035566  0.50324569  0.08758262]	0.00584986354206
[ 0.0969651   0.61920952  0.75472674]	-0.0214685847058
[ 0.27856347  0.12252472  0.25599553]	0.00319270789306
[ 0.85896411  0.75085682  0.52511022]	-0.0382113175863
[ 0.46228177  0.47799537  0.91845978]	-0.0455485580201
[ 0.60830727  0.33635427  0.79299637]	-0.0432870931887
[ 0.11244854  0.40223089  0.23765627]	0.0100678131902
[ 0.31400405  0.16746234  0.95166377]	-0.0407229354202
[ 0.05417027  0.21928765  0.81493225]	-0.0222128593941
[ 0.18437602  0.24877315  0.22772483]	0.0082779934566
[ 0.85516283  0.76587731  0.95398693]	-0.0642256519775
[ 0.93906937  0.22317863  0.48226864]	-0.0371813438365
[ 0.25244053  0.92190824  0.16723382]	0.00720101112157
[ 0.04576211  0.32954278  0.66208388]	-0.0129054780457
[ 0.76849543  0.86777677  0.22531808]	-0.0167091548297
[ 0.73876977  0.35107418  0.10116933]	-0.00638980520646
[ 0.64947163  0.10146427  0.343614  ]	-0.0168405237407
[ 0.67347353  0.14182039  0.86504078]	-0.0496751630141
[ 0.22275979  0.74836972  0.40276813]	-0.005433397478
[ 0.1615682   0.09507205  0.24716793]	0.00847015349986
[ 0.09728736  0.35488329  0.88689414]	-0.0287249033075
[ 0.5392776   0.84978553  0.33849534]	-0.0144248213592
[ 0.58954486  0.66828693  0.20075695]	-0.00748331691774
[ 0.61671141  0.37843366  0.96923898]	-0.0544835289799
[ 0.91611546  0.72998695  0.26717466]	-0.0247131565654
[ 0.9094115   0.90826877  0.72226093]	-0.052705960653
[ 0.28930001  0.7411809   0.35119467]	-0.00491864456594
[ 0.68620201  0.58710351  0.54717827]	-0.0321805701743
[ 0.13764168  0.94955906  0.11135935]	0.0150883338933
[ 0.32692573  0.059871    0.31159747]	-0.00192728869358
[ 0.13743504  0.25247147  0.90213078]	-0.0309384022753
[ 0.12368927  0.4535625   0.19080567]	0.0123172951127
[ 0.22561034  0.23425066  0.74245625]	-0.0246673722968
[ 0.25903686  0.75794395  0.2999159 ]	-0.000642329676995
[ 0.22342132  0.92762802  0.65421584]	-0.0213201354128
[ 0.72637102  0.34369573  0.62679492]	-0.0378859753461
[ 0.03517777  0.15135526  0.86849583]	-0.0245120676436
[ 0.92002515  0.29968244  0.87581357]	-0.0606246910427
[ 0.31851177  0.59776878  0.66968932]	-0.0250412006599
[ 0.97891134  0.81767301  0.10213478]	-0.0174282131641
[ 0.30697165  0.39364679  0.82476764]	-0.0334043184542
[ 0.19697383  0.60250667  0.51952212]	-0.0110731247177
[ 0.59438549  0.01048577  0.64310128]	-0.0326104890965
[ 0.35353534  0.41816695  0.19420567]	0.00307083601762
[ 0.15851512  0.88316708  0.68138184]	-0.0202559636959
[ 0.39400511  0.19065021  0.64902045]	-0.0255456284407
[ 0.94765943  0.16814016  0.20183032]	-0.0202759076374
[ 0.14383636  0.8035963   0.38477372]	-0.00136490529568
[ 0.92925637  0.38897853  0.72404187]	-0.0520209855335
[ 0.79752336  0.54988199  0.16286169]	-0.0130914210086
[ 0.92920901  0.16222543  0.07269129]	-0.0116586572545
[ 0.77890557  0.57149619  0.89752221]	-0.0571593078337
[ 0.54042391  0.08859579  0.57245103]	-0.0263982921929
[ 0.28882193  0.36051805  0.40440324]	-0.00697960440429
[ 0.35384217  0.98181758  0.45308818]	-0.0144265242837
[ 0.32857637  0.88705279  0.90497768]	-0.0406534540172
[ 0.70816118  0.60839858  0.73917262]	-0.0448124208947
[ 0.94412142  0.84807318  0.05820588]	-0.0134609490733
[ 0.68810846  0.68524829  0.40473533]	-0.0238804831333
[ 0.49064824  0.5959683   0.46869637]	-0.0196452694469
[ 0.73896677  0.27270979  0.07749061]	-0.00471662593518
[ 0.88751037  0.44940377  0.5430709 ]	-0.0395221724561
[ 0.90560313  0.48957767  0.77956197]	-0.0547676858702
[ 0.69124947  0.69132174  0.11761256]	-0.00653740498672
[ 0.68788019  0.58739539  0.05176381]	-0.0020760869661
[ 0.13299698  0.22587568  0.85251614]	-0.0276590189692
[ 0.19390552  0.00721696  0.3205034 ]	0.00298472091175
[ 0.07080217  0.55029767  0.07779063]	0.0210100832974
[ 0.34148883  0.9094463   0.37899837]	-0.00920196376586
[ 0.02754862  0.82203894  0.53182501]	-0.00574901438727
[ 0.50375559  0.64785281  0.91162636]	-0.0473008008834
[ 0.81002796  0.96349073  0.36552396]	-0.0271927996497
[ 0.65725224  0.85526526  0.8797952 ]	-0.0521033389467
[ 0.46868351  0.89248741  0.74741924]	-0.0366501789101
[ 0.40938089  0.47739938  0.14663622]	0.00356484903758
[ 0.77588932  0.53362395  0.67222629]	-0.0432026365873
[ 0.8554553  0.7397818  0.0389134]	-0.00842713072847
[ 0.85253148  0.59866054  0.17791434]	-0.0163460733921
[ 0.04861515  0.09427138  0.00997899]	0.0274133318572
[ 0.06190262  0.58661921  0.96280952]	-0.0326466603328
[ 0.74400926  0.99563898  0.35474991]	-0.024007263004
[ 0.33519206  0.26741476  0.07865788]	0.0112976593666
[ 0.4598838   0.30192102  0.28625241]	-0.00641306717296
[ 0.32177651  0.97931077  0.83217722]	-0.0362303568779
[ 0.586086    0.36688306  0.8662619 ]	-0.0469578984519
[ 0.50892878  0.4103966   0.7520592 ]	-0.0370646253448
[ 0.02970242  0.21754314  0.50305585]	-0.00223961437032
[ 0.96436506  0.62888857  0.54860021]	-0.0434647638683
[ 0.61813142  0.8293027   0.11573909]	-0.00393406554796
[ 0.4613471   0.25896501  0.14866064]	0.00203939456626
[ 0.85037968  0.16384374  0.85954152]	-0.056447812975
[ 0.89331348  0.0697978   0.34223401]	-0.0263642337037
[ 0.15969945  0.60639176  0.62928079]	-0.0162861591094
[ 0.82957673  0.59384934  0.62582181]	-0.0426967116922
[ 0.85478817  0.42970791  0.23095154]	-0.0191508978879
[ 0.29125202  0.38770216  0.00139471]	0.0173851787356
[ 0.38750439  0.30389251  0.97248842]	-0.0453322964857
[ 0.22376823  0.5126212   0.56314389]	-0.0145221224857
[ 0.12714995  0.70547266  0.10555445]	0.0166035863763
[ 0.68188354  0.46640074  0.64491729]	-0.0375932922552
[ 0.40490522  0.10343267  0.64294782]	-0.0253436758078
[ 0.73401443  0.42989235  0.407592  ]	-0.0251028750183
[ 0.81374144  0.76607357  0.14274078]	-0.0131705655365
[ 0.71863149  0.68530145  0.78761916]	-0.048414108585
[ 0.58641467  0.2130912   0.87123199]	-0.0468047897091
[ 0.87379051  0.94945877  0.43354576]	-0.0338303330617
[ 0.44524179  0.04592179  0.56359127]	-0.0219405906228
[ 0.53855652  0.41807396  0.8352136 ]	-0.0433314840488
[ 0.72743036  0.89783699  0.8861658 ]	-0.0554140345153
[ 0.00824013  0.66565319  0.28109093]	0.0107666297987
[ 0.10351734  0.66422518  0.18233561]	0.0129936683087
[ 0.89969316  0.75047158  0.35379402]	-0.02939741094
[ 0.73307054  0.98755664  0.61585574]	-0.0394493804356
[ 0.39623814  0.7426574   0.93790439]	-0.0449113212941
[ 0.52351056  0.98892961  0.17230278]	-0.00409995261033
[ 0.61595754  0.2820802   0.22009832]	-0.00853495020625
[ 0.67972682  0.07657594  0.64444314]	-0.0362900822409
[ 0.50386413  0.93931658  0.93921631]	-0.0498740449197
[ 0.78817707  0.70562689  0.01393707]	-0.00412436233992
[ 0.2654677   0.80023753  0.03634458]	0.0150250430247
[ 0.20917365  0.68877398  0.06461148]	0.0158837018907
[ 0.8578912   0.39820087  0.96379836]	-0.0638108030966
[ 0.24709511  0.13201279  0.28763179]	0.0024894040089
[ 0.46674778  0.3048966   0.25165998]	-0.0045885304595
[ 0.30447758  0.5164107   0.85512986]	-0.0355284902008
[ 0.48723628  0.35547095  0.82536937]	-0.0404986594112
[ 0.26260368  0.54298849  0.23687716]	0.00371031755391
[ 0.7154682   0.80368977  0.06674573]	-0.00474590330103
[ 0.76856661  0.67608693  0.5299955 ]	-0.0346832902672
[ 0.73989052  0.25362438  0.6305613 ]	-0.0383787909962
[ 0.4974386   0.66640056  0.63093259]	-0.0300108944915
[ 0.33556668  0.20485662  0.9639358 ]	-0.0424424839511
[ 0.72039661  0.59391577  0.36851067]	-0.0226808304819
[ 0.57802102  0.36351882  0.59038597]	-0.0298250410511
[ 0.41337521  0.15834908  0.03625295]	0.0111012658655
[ 0.10159759  0.84983324  0.10892329]	0.0169752073483
[ 0.8336042   0.52626428  0.10828066]	-0.0111312019499
[ 0.73788058  0.52752306  0.52408754]	-0.0326493077419
[ 0.03522875  0.97819862  0.6604295 ]	-0.0143631476974
[ 0.9215205   0.52477448  0.36330545]	-0.0301572513196
[ 0.76079033  0.82489356  0.50468354]	-0.0332859252218
[ 0.72039954  0.30762364  0.02284517]	-0.000756077616224
[ 0.24794309  0.89797207  0.99843618]	-0.0431696306849
[ 0.73299189  0.26791744  0.22923746]	-0.0137060472138
[ 0.05457342  0.5211613   0.06057007]	0.0227935604497
[ 0.43249954  0.06807241  0.24696598]	-0.00221762602289
[ 0.74771262  0.88222953  0.9244788 ]	-0.0585070056537
[ 0.13830473  0.1991442   0.49676923]	-0.00612274899725
[ 0.13419113  0.82066146  0.89393084]	-0.0320422050946
[ 0.87843992  0.0641335   0.19283186]	-0.0166560148151
[ 0.47367004  0.73211144  0.06820167]	0.0050066214186
[ 0.95524979  0.08996775  0.16235599]	-0.017935553016
[ 0.01917826  0.59179696  0.54815436]	-0.0057084360277
[ 0.48226788  0.63544225  0.18377106]	-0.00207933278257
[ 0.57778028  0.91126835  0.77418455]	-0.0426793032962
[  5.37195912e-05   2.99669431e-01   2.25388435e-01]	0.0156006842885
[ 0.44559958  0.48229977  0.26275646]	-0.00496355992375
[ 0.45547959  0.82419709  0.34998874]	-0.0117118353507
[ 0.07721623  0.64117941  0.46124755]	-0.00287588669043
[ 0.98962893  0.45121577  0.21407742]	-0.0235551164957
[ 0.97738016  0.13405006  0.73617976]	-0.0538981973204
[ 0.81727924  0.34563458  0.74714685]	-0.0488395854306
[ 0.10830176  0.86912656  0.13166609]	0.0152644743486
[ 0.84706563  0.02309585  0.94424803]	-0.0610456781083
[ 0.82934196  0.28525857  0.84590403]	-0.0551501722996
[ 0.47786802  0.51422154  0.15193973]	0.000403969221864
[ 0.11509283  0.33351624  0.54662899]	-0.00864524985234
[ 0.30805548  0.36953521  0.10240275]	0.0106201518368
[ 0.11386654  0.19218821  0.91501815]	-0.0306015200197
[ 0.21303123  0.76409059  0.31153367]	0.000462284793438
[ 0.81111303  0.85539809  0.87706393]	-0.0580606790334
[ 0.9610644   0.23998125  0.96561641]	-0.0675451838785
[ 0.17979408  0.09718158  0.69195321]	-0.0193503213792
[ 0.67290004  0.68422501  0.05855999]	-0.00218903603809
[ 0.12146474  0.69216107  0.42511555]	-0.00259175857956
[ 0.17546183  0.34613261  0.25909618]	0.00642532100571
[ 0.10493378  0.13965307  0.6844841 ]	-0.0160456646792
[ 0.21675464  0.48857659  0.65251619]	-0.019612720842
[ 0.79631496  0.56402191  0.21966806]	-0.0165461103854
[ 0.19265437  0.81698009  0.50753067]	-0.0108247954989
[ 0.45483641  0.72767786  0.24625186]	-0.00507409674534
[ 0.28998629  0.41339621  0.60068718]	-0.0191414133395
[ 0.28369159  0.48531379  0.4079606 ]	-0.00737256145615
[ 0.86452764  0.46511682  0.9600174 ]	-0.0640486594367
[ 0.39280392  0.0431586   0.97536154]	-0.0449232585499
[ 0.77547293  0.78855977  0.94308347]	-0.0604592938099
[ 0.27686308  0.63748708  0.03330304]	0.0152529682749
[ 0.36162717  0.96118958  0.83449666]	-0.037902326502
[ 0.69905195  0.19185148  0.31147285]	-0.0171317826714
[ 0.57833096  0.53147538  0.91954357]	-0.050396084309
[ 0.48674323  0.11949157  0.13734107]	0.00214331399145
[ 0.3181423   0.71743552  0.42943605]	-0.0107592252912
[ 0.20003013  0.86140391  0.91223758]	-0.0359015827565
[ 0.12095635  0.73580421  0.75384496]	-0.022725148645
[ 0.3299535   0.73263488  0.1244435 ]	0.00729929867022
[ 0.25105743  0.64850087  0.3936778 ]	-0.00570146569414
[ 0.49774829  0.85399456  0.17407684]	-0.00277133286053
[ 0.09144182  0.25435009  0.74764682]	-0.0197051980031
[ 0.04648311  0.04856167  0.91352631]	-0.0273910798313
[ 0.99009476  0.45979679  0.16435312]	-0.0205714648459
[ 0.90521645  0.17747345  0.88147251]	-0.0600073951551
[ 0.83609883  0.7228054   0.78976669]	-0.0533341504981
[ 0.12802483  0.24691168  0.743172  ]	-0.0208659031465
[ 0.31412072  0.21439323  0.01370352]	0.0162538057028
[ 0.34813191  0.90052556  0.53011386]	-0.0186425107577
[ 0.44261279  0.2456359   0.20010993]	-0.0003077975246
[ 0.96062656  0.56201563  0.4786397 ]	-0.0388513026429
[ 0.62673328  0.62926727  0.7519037 ]	-0.0424107765768
[ 0.7711241   0.44655498  0.84867972]	-0.0534940551429
[ 0.99572525  0.48770734  0.22633194]	-0.0246553263635
[ 0.11838272  0.86012135  0.46617328]	-0.0054817141229
[ 0.12518578  0.24612184  0.27519783]	0.00775045970428
[ 0.26097443  0.58631093  0.16125128]	0.00824890862594
[ 0.48810768  0.83133665  0.61675948]	-0.0292792219835
[ 0.512385    0.27813525  0.74125853]	-0.0361411430498
[ 0.04079592  0.6129867   0.04324175]	0.0241172566989
[ 0.83206198  0.7799679   0.35946898]	-0.0271414080117
[ 0.64813004  0.5875601   0.87510528]	-0.050638486843
[ 0.05078115  0.88064702  0.10174678]	0.019340700386
[ 0.98423842  0.20011778  0.03976106]	-0.0119586723022
[ 0.70641274  0.46423909  0.81232782]	-0.0487586842303
[ 0.48857621  0.14865611  0.65575884]	-0.0295916788413
[ 0.25095352  0.99557361  0.47532881]	-0.0117282688287
[ 0.82004511  0.4877512   0.53986811]	-0.0367590776182
[ 0.94172765  0.46051719  0.07005833]	-0.0129059475926
[ 0.71291776  0.86418926  0.05986334]	-0.0044096959002
[ 0.57673672  0.33772464  0.49815422]	-0.024078109551
[ 0.36136866  0.72177919  0.80815971]	-0.0355581265291
[ 0.60911864  0.78399229  0.65637955]	-0.0363637900428
[ 0.34063914  0.22153655  0.81549673]	-0.0336548446939
[ 0.67154678  0.39535055  0.38645377]	-0.0212241272538
[ 0.04699727  0.67799264  0.13100298]	0.0183273571639
[ 0.02381413  0.10214308  0.06347048]	0.0251185660719
[ 0.7129347   0.5955994   0.96532891]	-0.0587369391316
[ 0.78965338  0.38644423  0.66672057]	-0.0429663746289
[ 0.03558006  0.54725145  0.28730591]	0.00966104240084
[ 0.06661814  0.14352284  0.89970862]	-0.0276403853198
[ 0.19829005  0.51669054  0.53147379]	-0.0115917606538
[ 0.12447685  0.20054146  0.7629191 ]	-0.0217859831253
[ 0.19410556  0.33326293  0.04647276]	0.0186719593403
[ 0.4394125   0.00842566  0.62566938]	-0.0253750154377
[ 0.16244234  0.79699415  0.04852923]	0.0183930046582
[ 0.54655632  0.65333389  0.50672396]	-0.0243611579172
[ 0.70677376  0.30712063  0.56859203]	-0.0334498196688
[ 0.89499493  0.93433518  0.90101669]	-0.0630984269804
[ 0.62490578  0.51752088  0.88190911]	-0.049915055593
[ 0.5671835   0.05925155  0.3108359 ]	-0.0114406814778
[ 0.33956869  0.53294232  0.98005902]	-0.0445839748826
[ 0.32458423  0.7145423   0.66145488]	-0.0251373887992
[ 0.02311119  0.73984318  0.5991887 ]	-0.00942445845203
[ 0.20443939  0.57551701  0.01031367]	0.0197243044396
[ 0.3426886   0.92728979  0.02919076]	0.0120001723849
[ 0.98399141  0.16657394  0.37650695]	-0.0323553625532
[ 0.61502202  0.27259535  0.81603793]	-0.0447632318196
[ 0.88566629  0.33277327  0.49036521]	-0.0358832708707
[ 0.81555216  0.40556353  0.50748877]	-0.034357699822
[ 0.51571056  0.48294862  0.47649227]	-0.0207729044877
[ 0.68482723  0.5435505   0.93552573]	-0.0556445455383
[ 0.28793354  0.54981364  0.87290023]	-0.0360541841333
[ 0.16856322  0.19509019  0.69238765]	-0.0192283240447
[ 0.81336726  0.92054109  0.26110634]	-0.0208354184432
[ 0.9746079   0.84258208  0.24923785]	-0.0262918886297
[ 0.10269243  0.36446488  0.94211395]	-0.032332268773
[ 0.04859663  0.54051627  0.10383338]	0.0203375526575
[ 0.98233956  0.64782024  0.33968286]	-0.0315141584613
[ 0.47468051  0.94317707  0.29051579]	-0.00921665878142
[ 0.65095143  0.59645637  0.88058029]	-0.0511113380474
[ 0.9175886   0.61071002  0.965707  ]	-0.0669507530417
[ 0.67558964  0.28407683  0.44527163]	-0.0246279472713
[ 0.55711512  0.08341192  0.19008171]	-0.00375936865133
[ 0.10230993  0.35185769  0.52392336]	-0.00680960403397
[ 0.00040663  0.31629833  0.1352011 ]	0.0210286080719
[ 0.72812093  0.48792352  0.53719734]	-0.0329385909913
[ 0.86340076  0.84701233  0.7772104 ]	-0.0540346683016
[ 0.42392306  0.8997928   0.37626305]	-0.0122866212799
[  8.87697040e-01   9.31463949e-01   2.68791546e-04]	-0.00794110654042
[ 0.48269764  0.79157518  0.91853375]	-0.0473216084499
[ 0.70813136  0.27255643  0.31002322]	-0.0176508875275
[ 0.35906417  0.13646614  0.73970533]	-0.0295128384305
[ 0.08261839  0.50457684  0.53505098]	-0.00716924449705
[ 0.05497143  0.78694716  0.26198965]	0.00970036078375
[ 0.64209903  0.91051852  0.77948589]	-0.0455596109018
[ 0.50933022  0.43629643  0.51564617]	-0.0227613342746
[ 0.19138291  0.15846294  0.41969652]	-0.00341715068891
[ 0.08016524  0.58339179  0.50083117]	-0.00522782238177
[ 0.86646091  0.59390938  0.55817669]	-0.0400450117449
[ 0.54289199  0.97642674  0.02118903]	0.00437009359789
[ 0.24129346  0.3399957   0.03954228]	0.0171955578585
[ 0.11936221  0.92095855  0.63626827]	-0.0160654482547
[ 0.04086561  0.25550926  0.56035708]	-0.0062894419841
[ 0.92609869  0.2011064   0.82299361]	-0.0573489757094
[ 0.09102286  0.67755343  0.99988117]	-0.0363405851421
[ 0.9532529   0.76062028  0.84777403]	-0.061644695157
[ 0.09314679  0.08593093  0.07048711]	0.0219813935175
[ 0.80798211  0.31264882  0.10419547]	-0.00921143407596
[ 0.57619869  0.97454736  0.07354729]	-0.000138468386793
[ 0.97720872  0.9724308   0.922665  ]	-0.0678049220302
[ 0.76449401  0.39884679  0.80119249]	-0.0501926326721
[ 0.48468539  0.52103447  0.23650417]	-0.00503833339166
[ 0.11353094  0.55653757  0.44564861]	-0.00311304506981
[ 0.15692773  0.94764573  0.51792962]	-0.01043466426
[ 0.59343664  0.17053395  0.42757826]	-0.0199347143519
[ 0.26941452  0.36974207  0.01802971]	0.0172958952628
[ 0.86049093  0.79557311  0.92589683]	-0.0628174655745
[ 0.25454231  0.33547042  0.29336021]	0.00122384372188
[ 0.37359601  0.62410705  0.95251279]	-0.0445384774878
[ 0.87865861  0.26595189  0.91163343]	-0.0610570988817
[ 0.47211907  0.11854092  0.08747075]	0.00576546306052
[ 0.8473436   0.50330535  0.29359977]	-0.0228944634514
[ 0.93301548  0.14342091  0.2907379 ]	-0.0250324773846
[ 0.62664177  0.70296292  0.88269329]	-0.0505972793011
[ 0.67586757  0.54323547  0.8843759 ]	-0.0521718415309
[ 0.03295933  0.57506279  0.22084117]	0.0137284423102
[ 0.43641456  0.42202326  0.09706817]	0.00567664400617
[ 0.57683613  0.99787982  0.56022941]	-0.0298753090561
[ 0.17961589  0.32394     0.1241896 ]	0.0145438578935
[ 0.31168683  0.7756551   0.04307668]	0.0128505788232
[ 0.51618343  0.27102293  0.87391472]	-0.0443497695436
[ 0.25317814  0.54241705  0.97364306]	-0.0407839814868
[ 0.59229438  0.1266217   0.51736364]	-0.0252235620893
[ 0.38206404  0.81701432  0.38249756]	-0.010748060285
[ 0.09234833  0.67620108  0.63243363]	-0.0140106037693
[ 0.99735413  0.14208111  0.498556  ]	-0.0402456289322
[ 0.44696955  0.7919271   0.01737877]	0.00898212836873
[ 0.02390374  0.52954505  0.27610125]	0.0108621099333
[ 0.58747264  0.32163083  0.55193242]	-0.0277315520752
[ 0.0250601   0.5437799   0.39722218]	0.00339607874708
[ 0.01381375  0.43848982  0.52310634]	-0.00350204092431
[ 0.01422848  0.51986026  0.96331374]	-0.030576521502
[ 0.32560722  0.7816574   0.2199029 ]	0.00150905836181
[ 0.65529428  0.86423406  0.79394741]	-0.0468243847229
[ 0.46978629  0.91970173  0.78079501]	-0.0388097181362
[ 0.36612906  0.91318469  0.22865451]	-0.00103760944956
[ 0.08345678  0.15374076  0.81851749]	-0.0233969009602
[ 0.28002562  0.35351592  0.63245078]	-0.0204969337178
[ 0.72156216  0.69680501  0.33576915]	-0.0210468534671
[ 0.29866973  0.42040693  0.3769611 ]	-0.00588280770067
[ 0.8693215   0.00772246  0.88184893]	-0.0580842519437
[ 0.30536931  0.30773003  0.68086655]	-0.0243146168717
[ 0.98225518  0.97250654  0.05096727]	-0.0149170996114
[ 0.25780097  0.83919689  0.29859459]	-0.00076039698445
[ 0.29013284  0.143108    0.63235449]	-0.0202518181555
[ 0.57623638  0.63193591  0.25867685]	-0.0103703328651
[ 0.20214859  0.86401923  0.39448724]	-0.00446138597976
[ 0.84999018  0.8502741   0.00580214]	-0.00652993138969
[ 0.29787374  0.15344806  0.04081347]	0.0154351315589
[ 0.28302918  0.68120738  0.00673687]	0.016492233624
[ 0.36165075  0.0343677   0.56809778]	-0.0188531077278
[ 0.36706506  0.88238908  0.97855851]	-0.04665227315
[ 0.37548293  0.61170169  0.06555911]	0.00944227059667
[ 0.22226655  0.02633614  0.22870986]	0.00738822103264
[ 0.24834693  0.5037925   0.97672007]	-0.0406613513347
[ 0.20408669  0.37249539  0.249802  ]	0.00577178986053
[ 0.94099738  0.26553485  0.1964536 ]	-0.0199802547784
[ 0.80942997  0.30299525  0.59139191]	-0.0389112824917
[ 0.53366775  0.36630607  0.2488679 ]	-0.00726895926541
[ 0.33493333  0.69071001  0.24288917]	1.5254306504e-05
[ 0.21493191  0.58620797  0.78664853]	-0.0280068837139
[ 0.26359938  0.31211041  0.80686499]	-0.0303392981597
[ 0.2305662   0.68747331  0.40197612]	-0.00551017634859
[ 0.56315266  0.20680912  0.89535104]	-0.0473287855046
[ 0.68661325  0.9286789   0.6318252 ]	-0.0383935745533
[ 0.36593676  0.81602189  0.31491499]	-0.00598723642606
[ 0.92494894  0.95807073  0.05244863]	-0.0126826601921
[ 0.27562737  0.83246539  0.68109081]	-0.0247444368114
[ 0.8726123   0.48418497  0.74098774]	-0.0510890100166
[ 0.67394325  0.06042924  0.20489887]	-0.00924117652246
[ 0.16011445  0.58482836  0.23579968]	0.00772719434974
[ 0.4900444   0.36359221  0.55872404]	-0.024395711376
[ 0.73842968  0.76455767  0.35636211]	-0.0231788742793
[ 0.30071684  0.64118823  0.10487395]	0.00993349001619
[ 0.24343262  0.37073533  0.02705799]	0.0177770344087
[ 0.04581546  0.49227568  0.95369458]	-0.031163670171
[ 0.94447828  0.48975945  0.18194445]	-0.0199187545511
[ 0.73856086  0.43719176  0.7460673 ]	-0.0459201821799
[ 0.05326744  0.97446792  0.59527844]	-0.0111017824194
[ 0.44538494  0.43790996  0.33733479]	-0.00936171596941
[ 0.27509117  0.23510139  0.70286042]	-0.0242276805616
[ 0.32407048  0.10006846  0.95782401]	-0.041293259545
[ 0.74008698  0.8425768   0.95501737]	-0.0599425173284
[ 0.61412925  0.86162578  0.89432154]	-0.0512912384815
[ 0.68931535  0.60158393  0.40154843]	-0.0234793464471
[ 0.91501022  0.02878265  0.63923492]	-0.0451908695821
[ 0.01882445  0.64186922  0.83944964]	-0.0235877331589
[ 0.89994859  0.79069377  0.28160048]	-0.0251334124806
[ 0.80838023  0.34787847  0.00189437]	-0.00310425631762
[ 0.00964499  0.85884938  0.59900188]	-0.00923998647566
[ 0.63148749  0.09822444  0.56461795]	-0.0295746955207
[ 0.25847666  0.53713136  0.03731121]	0.0160465581987
[ 0.02583246  0.84540895  0.84908752]	-0.0250741627256
[ 0.95629542  0.02140276  0.74057081]	-0.0529830641542
[ 0.80088837  0.51699548  0.94030567]	-0.0604736419012
[ 0.69447521  0.80898764  0.72511514]	-0.0440231701564
[ 0.47591384  0.42945206  0.47896614]	-0.0191766590314
[ 0.97978848  0.37303905  0.98118327]	-0.0696440897026
[ 0.13451073  0.41288555  0.13498197]	0.0154104678863
[ 0.1883121   0.1447462   0.65155197]	-0.0173737815313
[ 0.14726691  0.84561826  0.78651696]	-0.0260968641824
[ 0.46899786  0.11625835  0.88248533]	-0.042522028125
[ 0.73767237  0.09176177  0.88020045]	-0.0530007656212
[ 0.27334644  0.79218262  0.74790438]	-0.0285999842402
[ 0.83325972  0.0949263   0.17016625]	-0.0135714354999
[ 0.98137721  0.42973443  0.4961257 ]	-0.0403387747373
[ 0.48338255  0.53158846  0.48866315]	-0.0203758656021
[ 0.23066018  0.53278573  0.50187993]	-0.0111267320972
[ 0.15492064  0.74746914  0.27505661]	0.00504717541361
[ 0.51029924  0.6156424   0.37732326]	-0.014922428945
[ 0.77457965  0.58718264  0.97221016]	-0.0615836822078
[ 0.51547275  0.90870847  0.63718217]	-0.0318479763173
[ 0.34080643  0.50898369  0.5526961 ]	-0.0185325624982
[ 0.17240761  0.38514559  0.80464775]	-0.0267977257351
[ 0.57699278  0.75665663  0.83559613]	-0.045916722443
[ 0.25692539  0.90493656  0.79959317]	-0.0314382281473
[ 0.99314484  0.89746284  0.21276525]	-0.0249756478895
[ 0.37223249  0.52374197  0.99352224]	-0.0466758115457
[ 0.84328093  0.5951725   0.97932563]	-0.0647755348107
[ 0.45143721  0.81669031  0.60620822]	-0.0271325722834
[ 0.85716304  0.28310696  0.07862428]	-0.00952128656328
[ 0.8894351   0.22472461  0.49376528]	-0.0359109149525
[ 0.96848397  0.62716088  0.17340711]	-0.0207730842191
[ 0.67660592  0.19959572  0.86616818]	-0.0500446324294
[ 0.15149972  0.54414058  0.67956317]	-0.0188323794315
[ 0.06075249  0.29605301  0.80804409]	-0.0222893496173
[ 0.56412923  0.52770592  0.0212477 ]	0.00488939439939
[ 0.42804445  0.74174177  0.78569939]	-0.036904621771
[ 0.63353198  0.89842322  0.14743018]	-0.00668778320066
[ 0.67863     0.24417065  0.81022461]	-0.0468539623096
[ 0.22065059  0.85717039  0.25915556]	0.00306524825095
[ 0.43711832  0.39662809  0.94570159]	-0.0459581461011
[ 0.72415695  0.03757875  0.86683237]	-0.0514835371681
[ 0.90348875  0.06501694  0.36375171]	-0.0280650983248
[ 0.51472457  0.13894154  0.55876299]	-0.0246953761603
[ 0.96186003  0.90055913  0.97820063]	-0.0703572381736
[ 0.33401582  0.97344043  0.49793096]	-0.016342997992
[ 0.27867011  0.63009052  0.79375544]	-0.0311101268763
[ 0.76875269  0.02348814  0.30725811]	-0.019135702122
[ 0.44000637  0.34271     0.12468146]	0.00409378076598
[ 0.92841834  0.50051469  0.09928459]	-0.0142781771439
[ 0.13420484  0.12558796  0.9891046 ]	-0.0357199598201
[ 0.15548564  0.64010784  0.99948927]	-0.0387680114463
[ 0.33602035  0.16710698  0.07876739]	0.0115638454386
[ 0.58951643  0.27747442  0.66618752]	-0.0346367282887
[ 0.29194505  0.64181262  0.31955175]	-0.00279381141332
[ 0.06845984  0.6175862   0.35215267]	0.00418871825195
[ 0.00948066  0.41539421  0.58408877]	-0.00697318547225
[ 0.66504799  0.18187171  0.52276024]	-0.02861609064
[ 0.15655001  0.81577713  0.28483724]	0.00417840400307
[ 0.08098807  0.12340619  0.14860583]	0.0175933715577
[ 0.63886554  0.46155491  0.40503574]	-0.0212570347069
[ 0.89632116  0.61906627  0.3624511 ]	-0.0293898252896
[ 0.71313443  0.67901967  0.24376751]	-0.0150540633214
[ 0.68597336  0.20765321  0.31909616]	-0.0171237449527
[ 0.85141783  0.39003431  0.83233119]	-0.0555215536166
[ 0.6299039   0.97201215  0.07484545]	-0.00234713548322
[ 0.57014238  0.78902499  0.57867505]	-0.0300955481516
[ 0.73610787  0.91552356  0.65494174]	-0.0417310930959
[ 0.22050166  0.30254156  0.52380039]	-0.0113554967639
[ 0.26157102  0.59106515  0.8257988 ]	-0.0322621771551
[ 0.65353026  0.11569339  0.13248137]	-0.00418684677116
[ 0.22083487  0.73336102  0.83407023]	-0.0315785657847
[ 0.09225332  0.30636655  0.84442562]	-0.0257901877392
[ 0.78462542  0.33646219  0.70035313]	-0.0446622082323
[ 0.70842867  0.6603609   0.99949147]	-0.0608356536469
[ 0.12337757  0.3171052   0.8403535 ]	-0.0268135921822
[ 0.53320562  0.45220471  0.58328603]	-0.0278794788929
[ 0.40648444  0.81379489  0.02157108]	0.0102713407822
[ 0.51903372  0.39771243  0.58911363]	-0.0275042534124
[ 0.96189216  0.57128665  0.2964726 ]	-0.0278354378567
[ 0.78676505  0.5800415   0.50500231]	-0.0335925621432
[ 0.39331772  0.02198162  0.52920874]	-0.0177071577399
[ 0.90040186  0.42614853  0.47853188]	-0.0360337098751
[ 0.55584817  0.1736342   0.16949814]	-0.00273041968822
[ 0.99102317  0.71790329  0.99973094]	-0.0722722338022
[ 0.46860517  0.40412198  0.71148912]	-0.0329698813309
[ 0.14531444  0.82380297  0.49332533]	-0.00809643954788
[ 0.99742896  0.97769708  0.36622894]	-0.0347371425498
[ 0.3798702   0.38766394  0.32152729]	-0.00563847994115
[ 0.8324607   0.01320496  0.93782122]	-0.060042871613
[ 0.48846754  0.63868327  0.32002808]	-0.0106343878924
[ 0.47449541  0.69471765  0.5204997 ]	-0.0224584659189
[ 0.32767127  0.01683325  0.54575801]	-0.016086793501
[ 0.54113512  0.13160773  0.88462526]	-0.0455700372424
[ 0.15258097  0.8288713   0.30060039]	0.00333641947631
[ 0.30388641  0.02499384  0.9061369 ]	-0.0371132021909
[ 0.75258709  0.67465198  0.91734113]	-0.0576334285476
[ 0.92162128  0.34171851  0.62182347]	-0.0453476479334
[ 0.03651557  0.29853125  0.21925541]	0.0145265818135
[ 0.80699579  0.29927355  0.03674909]	-0.00502372442055
[ 0.38670265  0.1422921   0.07567608]	0.00981074063908
[ 0.7669336   0.90873856  0.47605061]	-0.0320422123337
[ 0.978498    0.18902785  0.92623867]	-0.0656854336704
[ 0.64261087  0.73415183  0.77879336]	-0.0450000952163
[ 0.76220515  0.28979215  0.20738985]	-0.0136047723435
[ 0.42668461  0.9227743   0.44291944]	-0.0165261560062
[ 0.8551875   0.3580995   0.29803049]	-0.0230337699634
[ 0.54693631  0.46329371  0.72954371]	-0.0373672463894
[ 0.89783601  0.72016874  0.31348271]	-0.0267760391949
[ 0.73919563  0.31074887  0.1173906 ]	-0.0072717312839
[ 0.4060467   0.01621753  0.87368036]	-0.0391754748079
[ 0.97089212  0.77143333  0.21579443]	-0.0238902907299
[ 0.0994677   0.65267302  0.1781217 ]	0.013446693978
[ 0.37448483  0.17936751  0.71314923]	-0.0286399975048
[ 0.23263907  0.43686083  0.94324124]	-0.0377931988988
[ 0.61670683  0.13889562  0.08011597]	0.000397098426278
[ 0.95556535  0.46377418  0.97556975]	-0.0686148240743
[ 0.82902457  0.58583725  0.64745143]	-0.0439676158459
[ 0.68842436  0.98908346  0.38655087]	-0.0237119047811
[ 0.22420157  0.72190659  0.57890309]	-0.0161372197063
[ 0.14159167  0.1335325   0.30964008]	0.00534317792302
[ 0.5216736   0.28965004  0.62911514]	-0.0297160587698
[ 0.03842756  0.41098523  0.01506005]	0.0265437215511
[ 0.35211735  0.61774662  0.36364936]	-0.00780081793436
[ 0.04505512  0.27825825  0.32809021]	0.00762018607324
[ 0.81705139  0.84817927  0.18709183]	-0.0162537245513
[ 0.78046477  0.87268491  0.46992373]	-0.032097654042
[ 0.7858467   0.16206441  0.78670162]	-0.049437977046
[ 0.18497724  0.59581128  0.00562526]	0.0207225141135
[ 0.35898933  0.77473698  0.18986987]	0.00203072981441
[ 0.51115161  0.93300403  0.31066713]	-0.0118643764073
[ 0.45183788  0.38425926  0.99836208]	-0.0497134128609
[ 0.57845719  0.62515319  0.36924568]	-0.0171719945475
[ 0.33591064  0.42150159  0.31274801]	-0.00345747911114
[ 0.5193941   0.74700617  0.83623359]	-0.0436338384554
[ 0.64220284  0.01210682  0.26811033]	-0.0116804200067
[ 0.58338096  0.22738155  0.70144833]	-0.0363873126317
[ 0.25538274  0.48383001  0.69064626]	-0.0234577822133
[ 0.92351485  0.44568336  0.20819672]	-0.0205489213067
[ 0.35139523  0.14437117  0.79310495]	-0.0324839246619
[ 0.22884364  0.64240996  0.97429199]	-0.0401599098854
[ 0.40077244  0.11536728  0.92120554]	-0.0421622803147
[ 0.08550337  0.91922156  0.83508694]	-0.0268212813738
[ 0.23893969  0.81590358  0.2857244 ]	0.000845083222377
[ 0.18815829  0.44547194  0.78664494]	-0.0265120646756
[ 0.77800449  0.04845097  0.68449524]	-0.0425548295929
[ 0.72495583  0.90543963  0.10326714]	-0.00765796118121
[ 0.52503893  0.6281073   0.39842705]	-0.0168323164086
[ 0.19502791  0.57523907  0.41524786]	-0.00456194659733
[ 0.50332414  0.34307909  0.93368974]	-0.0476981570826
[ 0.57310664  0.37980249  0.64174781]	-0.0328071897072
[ 0.84627542  0.76939087  0.31956518]	-0.0252445642019
[ 0.4289241   0.39733922  0.37470203]	-0.010858694766
[ 0.18050213  0.51249343  0.81908876]	-0.0283876254975
[ 0.24162964  0.15916239  0.62450178]	-0.0178922054298
[ 0.49200183  0.64463202  0.95823328]	-0.0496617059963
[ 0.68624272  0.87626336  0.20518353]	-0.0122353232614
[ 0.42846077  0.16655243  0.0018543 ]	0.0125708638851
[ 0.36477325  0.02147499  0.20212905]	0.00335047688501
[ 0.92281599  0.9040793   0.30506145]	-0.0278180094165
[ 0.03552123  0.49551774  0.94562831]	-0.0302726112158
[ 0.43335005  0.15400122  0.60090276]	-0.0240692187524
[ 0.95065015  0.35239991  0.82636382]	-0.058992583641
[ 0.04517576  0.24584395  0.36601782]	0.00540431045941
[ 0.67154951  0.93409315  0.85275241]	-0.0512656823338
[ 0.29139084  0.47871028  0.48875867]	-0.0125796738858
[ 0.19446448  0.49692122  0.04607646]	0.0181828485448
[ 0.09992737  0.22175617  0.40813322]	0.000733821900243
[ 0.77607925  0.56825427  0.29913582]	-0.0205934977557
[ 0.05098364  0.53895467  0.66909022]	-0.0141784456312
[ 0.36133833  0.95590602  0.79097093]	-0.0352238809429
[ 0.62011962  0.09276198  0.33824697]	-0.0153189872964
[ 0.26970104  0.60595833  0.27590895]	0.00085872998739
[ 0.8337945   0.06816915  0.56640409]	-0.0376431612371
[ 0.8135726   0.23931029  0.46984473]	-0.031479414546
[ 0.87311675  0.98459614  0.46317416]	-0.0357151005372
[ 0.32033377  0.81647278  0.04197291]	0.012449229688
[ 0.3203809   0.40620766  0.04632416]	0.0134331698759
[ 0.69514554  0.2822712   0.74883973]	-0.043888885767
[ 0.45830598  0.07794939  0.63040426]	-0.0266272609208
[ 0.79416433  0.24645705  0.12869393]	-0.00995174074888
[ 0.21141063  0.97561028  0.7350358 ]	-0.0259105955963
[ 0.16617959  0.86128162  0.78939422]	-0.0270725295984
[ 0.0326204   0.71695844  0.505228  ]	-0.0040106542439
[ 0.49730435  0.93764923  0.18490419]	-0.0036681287512
[ 0.71609119  0.15419019  0.76110896]	-0.045079207168
[ 0.4333017   0.21828025  0.08801114]	0.00697330033417
[ 0.2444144   0.6662817   0.59079291]	-0.017496175076
[ 0.44050349  0.28030709  0.67069747]	-0.0289896882654
[ 0.0268756   0.49679205  0.99772448]	-0.0331052276846
[ 0.93054292  0.92787538  0.77768934]	-0.0569824649455
[ 0.49360753  0.58702155  0.84765599]	-0.0428154918668
[ 0.08208181  0.89173691  0.93419665]	-0.0326373821276
[ 0.0923762   0.85086592  0.98689259]	-0.0361317989904
[ 0.82338671  0.03520395  0.36086183]	-0.0246103397112
[ 0.46069911  0.0173164   0.66031564]	-0.02835933222
[ 0.23744357  0.5430455   0.16488113]	0.00909621874104
[ 0.03685572  0.17154879  0.16511094]	0.018197743441
[ 0.62199416  0.89868544  0.84749594]	-0.0488654174564
[ 0.64756782  0.03941057  0.34525824]	-0.0166757056351
[ 0.72448993  0.33031415  0.61826568]	-0.0372508597996
[ 0.08571869  0.66198803  0.99397216]	-0.0357221600862
[ 0.25130025  0.71645194  0.31529921]	-0.00114481772675
[ 0.20117874  0.12484336  0.64830875]	-0.0176276407576
[ 0.38570601  0.99941879  0.1343276 ]	0.00366514421479
[ 0.8594255   0.42040177  0.42056031]	-0.0308547970517
[ 0.01023145  0.35490988  0.82859316]	-0.0217096781891
[ 0.80418477  0.67890452  0.19813807]	-0.0158983263456
[ 0.97448364  0.52163065  0.73675361]	-0.0549995308683
[ 0.08752946  0.87040125  0.82525697]	-0.0261543980165
[ 0.28832519  0.20443905  0.83095711]	-0.0324623333956
[ 0.71910928  0.41819219  0.11680142]	-0.00676403588856
[ 0.30663795  0.26768679  0.42108809]	-0.00842176861727
[ 0.28029785  0.18309446  0.46338867]	-0.00969181836471
[ 0.93901528  0.11466263  0.64794154]	-0.0469383008221
[ 0.48109957  0.3042145   0.47116836]	-0.0185263059053
[ 0.41667109  0.24389097  0.73507799]	-0.0318511501177
[ 0.09756555  0.58853494  0.50854862]	-0.00640600661969
[ 0.62928112  0.91395824  0.40879179]	-0.0224836437475
[ 0.26595938  0.12836779  0.89683315]	-0.0353523425676
[ 0.5088422   0.88407293  0.59020312]	-0.0286478289769
[ 0.57282811  0.57283934  0.25940517]	-0.0100988748987
[ 0.92010511  0.70405432  0.00504579]	-0.00882847165581
[ 0.94763531  0.97550265  0.8522324 ]	-0.062347791907
[ 0.269979   0.5287429  0.111885 ]	0.0110726114119
[ 0.58130339  0.9094008   0.65234138]	-0.0353932222373
[ 0.50524466  0.51608211  0.2882591 ]	-0.00899346634392
[ 0.87363407  0.10687309  0.41736673]	-0.0302698760854
[ 0.6220136   0.24249351  0.47120695]	-0.0239485094471
[ 0.52547824  0.83156644  0.15231048]	-0.00248090350774
[ 0.65051545  0.76062676  0.55036825]	-0.0314836513068
[ 0.10429808  0.44636     0.63671249]	-0.0140460276539
[ 0.21860921  0.62659512  0.50292864]	-0.0109970097668
[ 0.95875709  0.68626378  0.10590079]	-0.0164548431433
[ 0.94970701  0.84847511  0.84968764]	-0.0618879743526
[ 0.27111405  0.73876223  0.12912185]	0.00933735690282
[ 0.70832431  0.85207773  0.66573881]	-0.041089514711
[ 0.30038249  0.9408791   0.27151343]	-0.00111572542765
[ 0.27631963  0.91957748  0.51486059]	-0.0149136784608
[ 0.32633541  0.46899511  0.40773645]	-0.00900627557088
[ 0.65824974  0.9546687   0.33297509]	-0.0191431871568
[ 0.75933564  0.68235736  0.69908419]	-0.0446330232488
[ 0.91910516  0.81963196  0.09374268]	-0.0145429454353
[ 0.13404404  0.80372757  0.32809233]	0.0024764638611
[ 0.20199258  0.0748169   0.85235795]	-0.0299346892633
[ 0.29562641  0.94754747  0.78012929]	-0.0319229390088
[ 0.25436811  0.8776218   0.69615689]	-0.0249536116852
[ 0.67191457  0.12442173  0.89965573]	-0.0516682248304
[ 0.49759449  0.82850219  0.1867855 ]	-0.00346148451417
[ 0.75358784  0.16400456  0.61211291]	-0.0375271170451
[ 0.17929168  0.01078069  0.62199771]	-0.0148064170858
[ 0.85083887  0.48238652  0.994349  ]	-0.0656474249502
[ 0.70172358  0.21175626  0.25360313]	-0.0137743605342
[ 0.64772147  0.85234439  0.34640707]	-0.0192302668453
[ 0.63246981  0.21995105  0.54358112]	-0.0287037075515
[ 0.52862561  0.18412255  0.32133217]	-0.0109261335268
[ 0.6376012   0.66834263  0.09172574]	-0.00275569651435
[ 0.49664304  0.0531672   0.45268333]	-0.0172537111372
[ 0.9940868   0.21884628  0.87058283]	-0.0630071398424
[ 0.24945029  0.65489867  0.04321961]	0.0156868967959
[ 0.53577768  0.12924718  0.48318209]	-0.0209005878249
[ 0.31500234  0.44349783  0.5637278 ]	-0.0179778314224
[ 0.02378517  0.08284386  0.02455188]	0.0275488129016
[ 0.48697952  0.311126    0.27806347]	-0.00702074421448
[ 0.58679407  0.28215799  0.43826336]	-0.020661429826
[ 0.79697108  0.1083132   0.07973352]	-0.00666043905995
[ 0.12228089  0.42896159  0.23646982]	0.00966727104323
[ 0.03284251  0.44013158  0.34672166]	0.00647798818302
[ 0.90267725  0.83812343  0.46003669]	-0.0362538871183
[ 0.75123534  0.55113286  0.01004984]	-0.00194640680156
[ 0.82589242  0.18412192  0.23645271]	-0.0175872109986
[ 0.80153975  0.72898691  0.4125393 ]	-0.0290034021423
[ 0.7061956   0.18422534  0.55116914]	-0.0319910222254
[ 0.34274661  0.75599852  0.5523548 ]	-0.0193420909184
[ 0.72462764  0.29670704  0.42860702]	-0.0256031223375
[ 0.40444199  0.74151817  0.84642612]	-0.0396630519726
[ 0.92680198  0.90249409  0.97273501]	-0.0686350421344
[ 0.46399935  0.39950025  0.59484708]	-0.0256686558948
[ 0.72608875  0.88555075  0.95941841]	-0.0597844776485
[ 0.26765277  0.1775434   0.53156341]	-0.0133236884281
[ 0.97544873  0.68847218  0.80687603]	-0.0598172629749
[ 0.93970165  0.31109762  0.26621975]	-0.024316558498
[ 0.5145602   0.31258055  0.80248795]	-0.0400617752621
[ 0.78060273  0.80407809  0.27390617]	-0.0199559442708
[ 0.38800536  0.12422317  0.72395433]	-0.0296680181859
[ 0.32900671  0.3723437   0.75270182]	-0.0298272950537
[ 0.69620965  0.04618997  0.29818488]	-0.0157652968037
[ 0.38363166  0.42918355  0.89001438]	-0.0405372548113
[ 0.47507605  0.54158315  0.81781548]	-0.0401220793868
[ 0.24096057  0.22252342  0.8753383 ]	-0.0333354168531
[ 0.69233211  0.58608643  0.1201553 ]	-0.0064145089483
[ 0.44430578  0.32295407  0.37136442]	-0.0110407916832
[ 0.26288651  0.42698226  0.86763294]	-0.0343620917853
[ 0.70673171  0.55717989  0.98072697]	-0.0593107278872
[ 0.69425004  0.90628547  0.62654622]	-0.0383077216475
[ 0.08182036  0.36557648  0.91500571]	-0.0298540310323
[ 0.67283347  0.72918206  0.09215191]	-0.00436929616094
[ 0.59647025  0.54361256  0.82716212]	-0.0455286915479
[ 0.81373675  0.02258946  0.05250732]	-0.0054081624869
[ 0.2559555   0.4926063   0.38662278]	-0.00499143292261
[ 0.98894686  0.084876    0.60410839]	-0.0461650762632
[ 0.67640725  0.34795588  0.85590288]	-0.0498638606545
[ 0.04084369  0.74729803  0.59596146]	-0.00995634801585
[ 0.66824073  0.3208831   0.2213328 ]	-0.0108091775072
[ 0.74398969  0.92491024  0.54021442]	-0.0350861655295
[ 0.62784457  0.66172887  0.62762282]	-0.034984910937
[ 0.21032039  0.11410244  0.0464327 ]	0.0186972674899
[ 0.65065385  0.43210066  0.72616418]	-0.0411940221406
[ 0.85809159  0.34756507  0.82966944]	-0.0554955634614
[ 0.70149784  0.88024693  0.43711487]	-0.0269798672782
[ 0.08256588  0.10623497  0.34754939]	0.00546669764087
[ 0.16285404  0.43723684  0.84447885]	-0.0290021617682
[ 0.45343744  0.72806755  0.33487134]	-0.0104167894151
[ 0.48141076  0.6105411   0.90810434]	-0.0460832748508
[ 0.08075767  0.56038739  0.04443585]	0.0226145193394
[ 0.89875102  0.82048377  0.93134446]	-0.0647478465315
[ 0.80487751  0.47429022  0.37058292]	-0.0258044513103
[ 0.90116135  0.19942076  0.70984006]	-0.0494600170099
[ 0.01125519  0.79981605  0.75333578]	-0.0185234640642
[ 0.53819932  0.38881868  0.8287933 ]	-0.0428370601767
[ 0.06606884  0.52759629  0.33442041]	0.00563818117639
[ 0.31205346  0.2677463   0.00361001]	0.0167881379804
[ 0.98102528  0.075863    0.18047225]	-0.0200216823998
[ 0.98206322  0.49886672  0.6052835 ]	-0.0472248703395
[ 0.22768624  0.36026735  0.51513534]	-0.0112896936916
[ 0.06053872  0.46461171  0.55275112]	-0.00724667165181
[ 0.79043407  0.91234409  0.47944225]	-0.0331950256562
[ 0.12623364  0.63095224  0.00950735]	0.0227167953879
[ 0.59729199  0.16808712  0.90171251]	-0.0489568225244
[ 0.25721023  0.27329076  0.37439393]	-0.00362794530214
[ 0.33224127  0.00454773  0.572134  ]	-0.017837585106
[ 0.04254652  0.21858188  0.26165453]	0.0119480873046
[ 0.55881737  0.1662676   0.66703857]	-0.0331277646552
[ 0.00346831  0.58292089  0.59860347]	-0.00812865275757
[ 0.2703959   0.03923324  0.06758556]	0.0152464030514
[ 0.24943174  0.5893651   0.71653518]	-0.0251194129013
[ 0.80798903  0.34013625  0.47096071]	-0.0316325674123
[ 0.10452523  0.50519471  0.03876471]	0.0221822900028
[ 0.48613749  0.86537478  0.8340784 ]	-0.0425399344665
[ 0.09827637  0.40319725  0.11417043]	0.0181495251811
[ 0.72621542  0.56328107  0.83141363]	-0.0510111222238
[ 0.64056737  0.52742235  0.23765766]	-0.0113317761064
[ 0.81268817  0.51047582  0.23894611]	-0.0182085601982
[ 0.59691916  0.33930846  0.0753926 ]	0.000861245028719
[ 0.67371334  0.78504738  0.53468899]	-0.0315264116671
[ 0.24637256  0.24235006  0.13205421]	0.0116568832401
[ 0.48079523  0.48212259  0.49269001]	-0.020367331927
[ 0.20328093  0.70040685  0.25497003]	0.00448936989101
[ 0.34138231  0.13416081  0.30147938]	-0.0021128996984
[ 0.45286588  0.98532022  0.85601828]	-0.042917698781
[ 0.46074867  0.13942069  0.99386257]	-0.0490475414973
[  3.28710688e-01   7.78548261e-01   1.60409867e-04]	0.0147779747968
[ 0.81803098  0.72016083  0.17147371]	-0.0149512173273
[ 0.75517049  0.00713162  0.65733639]	-0.0398660663801
[ 0.4028055   0.50385817  0.12869299]	0.00483865987389
[ 0.81428833  0.91790037  0.84439   ]	-0.0563876699373
[ 0.1481814   0.40919054  0.26448289]	0.00699069648714
[ 0.27198036  0.17229392  0.8260927 ]	-0.0314175891715
[ 0.64652546  0.32016983  0.10144991]	-0.00264157780391
[ 0.96621508  0.20549422  0.50253235]	-0.0394418771562
[ 0.99105965  0.52090922  0.68723527]	-0.0526412068798
[ 0.03871996  0.92704969  0.44619058]	-0.00129838162082
[ 0.2232281   0.17281064  0.1849128 ]	0.00957074792026
[ 0.86219642  0.24885903  0.82354929]	-0.0549852554121
[ 0.55661193  0.42667507  0.16228857]	-0.00309320497721
[ 0.12265279  0.53280533  0.17855368]	0.0128631297546
[ 0.05759717  0.72284443  0.24426681]	0.0108706709206
[ 0.21439319  0.49855236  0.66364782]	-0.0202271032797
[ 0.85882766  0.18775068  0.15488324]	-0.0139412005323
[ 0.28788174  0.713096    0.40097474]	-0.00780832458425
[ 0.04419399  0.02850097  0.22827545]	0.0144949245846
[ 0.9567586   0.65628515  0.42981324]	-0.0360111056823
[ 0.0182971   0.76020348  0.91176716]	-0.0283318684553
[ 0.77470591  0.67075581  0.16476711]	-0.0126679093412
[ 0.16201724  0.84926245  0.7506984 ]	-0.0245135478519
[ 0.42917995  0.07078997  0.35063897]	-0.00840778179703
[ 0.1096452   0.03822393  0.45817166]	-0.00214085283973
[ 0.42936891  0.59660624  0.10866114]	0.00471872790562
[ 0.26420388  0.43511421  0.21072128]	0.00556849020849
[ 0.47654981  0.54687585  0.10794595]	0.00303622103892
[ 0.95659668  0.17778211  0.65765861]	-0.0484222339099
[ 0.33520402  0.89327984  0.39433878]	-0.0098368310462
[ 0.06823792  0.81742039  0.96542233]	-0.0337615856614
[ 0.881326    0.66934986  0.67362921]	-0.0478979984626
[ 0.16768257  0.43116149  0.62105585]	-0.0155687014613
[ 0.89282566  0.12729597  0.6168313 ]	-0.0432438826184
[ 0.56452715  0.56288842  0.77377847]	-0.0410649868722
[ 0.98832717  0.35705793  0.65002581]	-0.049766746506
[ 0.5752593   0.25277779  0.93990065]	-0.0506639487021
[ 0.97493187  0.20088919  0.95277018]	-0.0671955180485
[ 0.03578702  0.95354798  0.24754887]	0.0108354029579
[ 0.42117947  0.96948058  0.89324854]	-0.0438757956655
[ 0.99831546  0.56036449  0.41838287]	-0.0366763799162
[ 0.42654479  0.75599143  0.91814326]	-0.0449545945135
[ 0.37915529  0.88587306  0.35496424]	-0.00916537798724
[ 0.02652723  0.93668444  0.27576459]	0.00953691576073
[ 0.07161819  0.6622894   0.02106934]	0.024090655137
[ 0.01803669  0.64775418  0.54083365]	-0.00538775440604
[ 0.21772435  0.93541976  0.16640691]	0.00859179611295
[ 0.48801544  0.14122843  0.92162956]	-0.0457390050587
[ 0.77173306  0.81533531  0.11698794]	-0.0100805047147
[ 0.13585242  0.42225226  0.78608986]	-0.0243258221455
[ 0.91302988  0.80958157  0.19930226]	-0.0206994031587
[ 0.25970257  0.52357213  0.73907994]	-0.0267006169566
[ 0.60171664  0.15587247  0.34103653]	-0.0149488980721
[ 0.20867164  0.05014758  0.19616712]	0.0098386151197
[ 0.494516    0.16690652  0.63153044]	-0.0284081310319
[ 0.58913328  0.87517351  0.72961364]	-0.0403065821521
[ 0.74953415  0.15027632  0.79562103]	-0.0485001059163
[ 0.20011081  0.89329504  0.53477093]	-0.0130132230152
[ 0.00080245  0.07216401  0.75039682]	-0.0157100082475
[ 0.73613324  0.78546414  0.33088319]	-0.0215994824849
[ 0.09089063  0.29852551  0.84716345]	-0.0258787924817
[ 0.60201781  0.39106871  0.48605111]	-0.0245097556217
[ 0.75232194  0.20642819  0.17991557]	-0.0112840222692
[ 0.00541043  0.66961973  0.92913064]	-0.028600324146
[ 0.85900503  0.91302291  0.38800168]	-0.0303570565837
[ 0.07431489  0.79518958  0.2852061 ]	0.00749146112233
[ 0.80344803  0.00826643  0.09585404]	-0.00759496809336
[ 0.86537408  0.74956508  0.85691841]	-0.0586705501382
[ 0.45337044  0.87354782  0.0992873 ]	0.00349007896318
[ 0.38084141  0.74369288  0.85135785]	-0.039030794914
[ 0.64064088  0.053463    0.5645638 ]	-0.0297992110732
[ 0.37803145  0.17095041  0.8140188 ]	-0.0348987283684
[ 0.73076616  0.37890059  0.90120243]	-0.0548804277449
[ 0.52659454  0.85428311  0.18421976]	-0.00453795464241
[ 0.97420029  0.50904685  0.30962303]	-0.0289364120782
[ 0.4130469   0.685521    0.31672773]	-0.00757463198346
[ 0.72881418  0.28119494  0.53982537]	-0.0324959593818
[ 0.06909449  0.21350456  0.44607939]	-0.00032497881658
[ 0.68335903  0.75982631  0.60944855]	-0.0363864632741
[ 0.77435567  0.79055084  0.44660137]	-0.0301837173565
[ 0.32492225  0.15005875  0.23550741]	0.00251158252198
[ 0.95663597  0.44713011  0.70822208]	-0.0523244477999
[ 0.79106689  0.7781779   0.79747636]	-0.0521803524406
[ 0.25720396  0.39929203  0.20012007]	0.00660192840262
[ 0.87203477  0.69958657  0.2022542 ]	-0.0189123274865
[ 0.16731233  0.77098508  0.40870909]	-0.00365749780032
[ 0.52120554  0.20194098  0.5737037 ]	-0.0260553078822
[ 0.83581029  0.36969163  0.26764543]	-0.0204474100008
[ 0.49932978  0.00348945  0.41113451]	-0.0146787366311
[ 0.94271326  0.7219034   0.63275414]	-0.0480118762562
[ 0.10371554  0.49238055  0.4869433 ]	-0.0050417790931
[ 0.62439859  0.64933671  0.83452218]	-0.0474107520991
[ 0.41120199  0.15414261  0.52813034]	-0.0187561632869
[ 0.70467921  0.83112346  0.87606863]	-0.0536902522683
[ 0.40053616  0.35910473  0.22099032]	-0.000250872660714
[ 0.29825275  0.50446863  0.21949289]	0.00346776527942
[ 0.9772849   0.32220652  0.27551395]	-0.0264121910634
[ 0.50713899  0.23760426  0.451744  ]	-0.0181765293978
[ 0.86999059  0.68159845  0.89593632]	-0.061023361064
[ 0.38490829  0.73814654  0.18958859]	0.00112790738175
[ 0.20660321  0.94948372  0.71933192]	-0.0246832056074
[ 0.58609835  0.0154411   0.15301467]	-0.00244811095023
[ 0.55248231  0.64215788  0.0543978 ]	0.00298503532647
[ 0.02842127  0.93386057  0.20734738]	0.0136369508667
[ 0.86691295  0.21458633  0.1638477 ]	-0.014890753147
[ 0.91214447  0.37402571  0.10306247]	-0.0134749610183
[ 0.97069125  0.61777304  0.44587316]	-0.037426269631
[ 0.90828592  0.47352759  0.54911479]	-0.0407906268957
[ 0.0201341   0.59676423  0.8631715 ]	-0.0249470666475
[ 0.18680414  0.7007244   0.58774926]	-0.0151230714193
[ 0.01240421  0.34038104  0.66330601]	-0.0116853914532
[ 0.22881409  0.98199184  0.94789968]	-0.0395866865026
[ 0.05473156  0.2165327   0.34453566]	0.00642170230917
[ 0.02467502  0.31204528  0.48557608]	-0.00126308699717
[ 0.21048958  0.71832187  0.90924823]	-0.035699553293
[ 0.06931556  0.29700917  0.0170901 ]	0.0255383106864
[ 0.31141683  0.56679197  0.96263208]	-0.042505451134
[ 0.75098704  0.06545312  0.89467933]	-0.0543322520077
[ 0.5386206   0.93114385  0.75765411]	-0.0401746907319
[ 0.93229058  0.41487298  0.47085073]	-0.0368006206813
[ 0.52209924  0.73993183  0.78817835]	-0.0407932266374
[ 0.997194    0.54119151  0.61191098]	-0.0483597105566
[ 0.86961363  0.90795639  0.54937856]	-0.040592119955
[ 0.64396716  0.40322262  0.89016891]	-0.0508282231471
[ 0.06499302  0.20116395  0.66322869]	-0.0133491407819
[ 0.25779077  0.28745815  0.13703271]	0.0107617357631
[ 0.18406528  0.95063743  0.215694  ]	0.00688322316071
[ 0.40402534  0.15093673  0.40388181]	-0.0108936845478
[ 0.57330207  0.01192111  0.38227586]	-0.0158907821853
[ 0.09935442  0.29020481  0.91719909]	-0.0304556331984
[ 0.26272411  0.28641596  0.75989333]	-0.0273654179554
[ 0.55361003  0.63876157  0.67717172]	-0.0349782072203
[ 0.10760018  0.49073946  0.54267981]	-0.0085858880173
[ 0.59796248  0.05601086  0.01260641]	0.00550730271471
[ 0.3405888   0.82262698  0.99826892]	-0.0466168007885
[ 0.88822954  0.12966328  0.14241999]	-0.0141751774804
[ 0.46142959  0.23870694  0.92802726]	-0.0453677855595
[ 0.30091553  0.50126512  0.29353707]	-0.00113794300637
[ 0.03515305  0.80274741  0.54572673]	-0.00683949048995
[ 0.85665811  0.27879195  0.33456399]	-0.0250754979551
[ 0.72991223  0.93588823  0.63649272]	-0.040423011866
[ 0.99539821  0.46064531  0.69904611]	-0.0533494517956
[ 0.03115679  0.6352488   0.57309603]	-0.00783664673311
[ 0.82354915  0.62521131  0.23151389]	-0.0185379634026
[ 0.5255287   0.06830477  0.34924984]	-0.012150044016
[ 0.74851422  0.43606265  0.06864954]	-0.00505617542286
[ 0.70512106  0.69019046  0.99190734]	-0.0603330681068
[ 0.62442829  0.54582729  0.41011012]	-0.0212484428545
[ 0.74412011  0.45693599  0.10256987]	-0.00701078478694
[ 0.02661482  0.37461549  0.99325175]	-0.0324499540651
[ 0.93134243  0.74228221  0.53752487]	-0.0418217408573
[ 0.32588438  0.51145025  0.64637824]	-0.0236517325881
[ 0.32641568  0.84604795  0.14082851]	0.00609642664047
[ 0.03526485  0.90274532  0.26856862]	0.00973090857141
[ 0.89624632  0.26884826  0.95134212]	-0.0641842500059
[ 0.40438824  0.96908261  0.14978901]	0.00207248281206
[ 0.94291281  0.44121553  0.20604423]	-0.0211761976136
[ 0.96287118  0.90265976  0.16398338]	-0.0208157198455
[ 0.74825013  0.59637887  0.12768222]	-0.00912969798499
[ 0.71639291  0.50798611  0.64801427]	-0.0392820805369
[ 0.90707803  0.37641702  0.0505881 ]	-0.0100847801276
[ 0.76543346  0.39550432  0.91104805]	-0.0569103480396
[ 0.61056532  0.88652444  0.23242203]	-0.010913737183
[ 0.55050179  0.88957921  0.0144971 ]	0.00473958140609
[ 0.24079207  0.04948455  0.49467785]	-0.00961783596848
[ 0.08190482  0.33874993  0.98896613]	-0.0342800051593
[ 0.38462153  0.12196744  0.1690959 ]	0.00426599526096
[ 0.31649529  0.07930844  0.49262033]	-0.0125962552118
[ 0.02438698  0.45055528  0.92995713]	-0.0287379935537
[ 0.39861568  0.59803246  0.98948186]	-0.0477062240145
[ 0.53528636  0.28212552  0.10629211]	0.00160654867669
[ 0.49893033  0.02305174  0.56623667]	-0.0241686472689
[ 0.8872812  0.458913   0.5467709]	-0.0397673845523
[ 0.12757053  0.61529821  0.73691503]	-0.0215898952544
[ 0.09893488  0.74567267  0.28019447]	0.00696783618708
[ 0.3569422   0.43903231  0.41934213]	-0.010839818711
[ 0.89305905  0.93709555  0.42578442]	-0.0340867919705
[ 0.33014089  0.75361119  0.33241019]	-0.00543787909845
[ 0.73248505  0.89552834  0.6258948 ]	-0.0397569104109
[ 0.35905417  0.72760585  0.78780682]	-0.0342442305751
[ 0.35631821  0.58317836  0.84044073]	-0.0369005701072
[ 0.89333522  0.43872071  0.33826655]	-0.0272482444441
[ 0.01668047  0.42574471  0.9219015 ]	-0.0278650401795
[ 0.4020272   0.86119711  0.60861252]	-0.0254482980584
[ 0.57279691  0.3815695   0.53619257]	-0.0263716340933
[ 0.20007679  0.43751557  0.93335758]	-0.0358973542865
[ 0.20862165  0.80268849  0.13473514]	0.0112876347226
[ 0.66160787  0.74633268  0.96986191]	-0.0574298880523
[ 0.90878461  0.47549325  0.82415866]	-0.0575674262177
[ 0.03192613  0.92380466  0.87483239]	-0.027123625129
[ 0.2603043   0.22303642  0.01908241]	0.0180416246275
[ 0.84662851  0.57200272  0.80490092]	-0.05421515537
[ 0.5123943   0.81402764  0.14336555]	-0.00136195047418
[ 0.97759446  0.82000538  0.36415957]	-0.0333409759736
[ 0.19789239  0.59549342  0.01515257]	0.0196292519729
[ 0.93060227  0.03033912  0.18970455]	-0.0184384517304
[ 0.43987789  0.97397803  0.59417143]	-0.026419005632
[ 0.52553572  0.20567484  0.47678816]	-0.0203365877108
[ 0.48106645  0.38367501  0.76385558]	-0.0365927382047
[ 0.05324372  0.98741306  0.24859733]	0.00997356751612
[ 0.88220557  0.05640194  0.23464532]	-0.0193288654701
[ 0.63181615  0.17155744  0.9293302 ]	-0.0520233750154
[ 0.11902644  0.18507254  0.90164228]	-0.0299705482695
[ 0.10777582  0.90535496  0.1687527 ]	0.0129162714704
[ 0.98099267  0.55694753  0.34123401]	-0.0312779711924
[ 0.22526408  0.2560261   0.42847454]	-0.00559759510663
[ 0.02274021  0.57743014  0.29348348]	0.00970379587869
[ 0.03977216  0.00661998  0.40977106]	0.00368401040914
[ 0.92523996  0.82036269  0.66430308]	-0.0495380861667
[ 0.71590542  0.89857238  0.62291848]	-0.0389250965099
[ 0.8265042   0.00486749  0.52192242]	-0.0344509690305
[ 0.45394343  0.93241004  0.7104029 ]	-0.0339308757902
[ 0.69644276  0.92450234  0.37161876]	-0.0229247136192
[ 0.92427221  0.0631504   0.79907246]	-0.0553988188347
[ 0.68496049  0.97904452  0.79512143]	-0.0484265623898
[ 0.46428498  0.86245856  0.36074241]	-0.0128338494812
[ 0.93441606  0.98490808  0.74354691]	-0.0552311158605
[ 0.45220626  0.08058897  0.81577937]	-0.0376824310241
[ 0.47115896  0.88448058  0.29910271]	-0.00942052287335
[ 0.52177504  0.17397628  0.29393927]	-0.00895425768632
[ 0.91087477  0.21895272  0.76126468]	-0.0530380429134
[ 0.59476357  0.95191183  0.82353887]	-0.0464849298241
[ 0.62700045  0.9884408   0.08336184]	-0.00280034526495
[ 0.0256103   0.43756053  0.71390308]	-0.0155887493949
[ 0.94163055  0.27793174  0.32767017]	-0.0280347145881
[ 0.91919502  0.52580121  0.10232658]	-0.0141734717519
[ 0.6854694   0.59404587  0.26632037]	-0.0150675289044
[ 0.54973577  0.73197023  0.18514433]	-0.00514231855868
[ 0.21894369  0.11774134  0.75787535]	-0.0249859086628
[ 0.25191234  0.91760597  0.41324848]	-0.00774784895926
[ 0.53873845  0.12921979  0.00265142]	0.00824735921349
[ 0.25079027  0.99947498  0.9864291 ]	-0.0428611386479
[ 0.88426406  0.75431456  0.17617606]	-0.0179776445351
[ 0.62502537  0.70775056  0.80803313]	-0.0460005295817
[ 0.39978236  0.90780751  0.48750606]	-0.018125334588
[ 0.80534253  0.47448373  0.9759063 ]	-0.0626894768583
[ 0.36970912  0.45727438  0.29665323]	-0.00393142092596
[ 0.13713844  0.20602673  0.81199757]	-0.0252956262734
[ 0.10618031  0.39710973  0.76960483]	-0.0220643052917
[ 0.89421315  0.65824228  0.60776892]	-0.0443659300522
[ 0.73577942  0.50291454  0.15157622]	-0.00980365315215
[ 0.26604148  0.02387591  0.33992239]	-0.00111957321547
[ 0.56350352  0.56726444  0.48644301]	-0.0235380377286
[ 0.8663424   0.84295248  0.40148027]	-0.0312563190178
[ 0.89470289  0.67355308  0.28662038]	-0.0248732339144
[ 0.38606126  0.4558454   0.68374137]	-0.0281526162334
[ 0.75433239  0.23447481  0.19556039]	-0.0124023565298
[ 0.07336708  0.04817193  0.29136532]	0.00943158031343
[ 0.66852144  0.1718614   0.34927447]	-0.0181580248288
[ 0.2326414   0.17140667  0.4299449 ]	-0.00572275463937
[ 0.38346427  0.25506689  0.39580386]	-0.00990090756972
[ 0.80450834  0.94906956  0.35781417]	-0.026459617133
[ 0.62539794  0.35809346  0.52650863]	-0.0278036707405
[ 0.61119334  0.44322339  0.05409479]	0.0012734488104
[ 0.95673091  0.50657147  0.71880652]	-0.0531540744106
[ 0.87372626  0.12055663  0.75363491]	-0.0507949586974
[ 0.95585907  0.37781085  0.97285854]	-0.0681993067838
[ 0.14106065  0.96007359  0.43546698]	-0.00481887283994
[ 0.09930493  0.89363265  0.9059189 ]	-0.0316064032616
[ 0.87788558  0.96775555  0.05157467]	-0.0107859558011
[ 0.44452978  0.97709723  0.8004196 ]	-0.0391747534721
[ 0.15669725  0.00838937  0.13979737]	0.0154674587431
[ 0.51818463  0.61233332  0.78354068]	-0.0399659639235
[ 0.30907898  0.00527616  0.20738811]	0.00529606556843
[ 0.13445727  0.69440019  0.89125088]	-0.0315046329076
[ 0.76827921  0.64458127  0.41302427]	-0.0274519141275
[ 0.30031706  0.79294132  0.71831297]	-0.0278734595546
[ 0.32529474  0.65339549  0.70331273]	-0.0275285035767
[ 0.15302545  0.82658416  0.89550642]	-0.0329057786848
[ 0.45148334  0.12704001  0.07647223]	0.00723064297834
[ 0.94386591  0.02807271  0.25114622]	-0.0227013756513
[ 0.8861367   0.62908528  0.56652025]	-0.0414434504394
[ 0.25375977  0.29249102  0.31491187]	7.34646461211e-05
[ 0.63989878  0.81186676  0.86019727]	-0.0500868307096
[ 0.23532485  0.65339908  0.94110067]	-0.038429903085
[ 0.07832223  0.24409392  0.99356784]	-0.034129096505
[ 0.25712201  0.92312465  0.00334075]	0.0169925489448
[ 0.26045561  0.07705327  0.38147302]	-0.00358994933293
[ 0.23916312  0.17269484  0.75185927]	-0.0255917382693
[ 0.60500212  0.05555466  0.03626736]	0.00378751357917
[ 0.04784516  0.4966897   0.32572766]	0.00698708014315
[ 0.59623225  0.78735467  0.75457304]	-0.0418414598631
[ 0.54911293  0.81873324  0.99482938]	-0.0546941946325
[ 0.47824646  0.95759305  0.69181078]	-0.0338425405528
[ 0.86538049  0.52077854  0.33019901]	-0.0258945580932
[ 0.72185423  0.46443637  0.97115386]	-0.0590467798909
[ 0.77427954  0.02280691  0.36271136]	-0.0227308416557
[ 0.54885927  0.68832896  0.49257577]	-0.0236978377703
[ 0.39607686  0.60809721  0.64109711]	-0.0264182410322
[ 0.64915734  0.09898516  0.97663683]	-0.0553733615651
[ 0.22955011  0.16591995  0.75842474]	-0.0255883648399
[ 0.93600597  0.82392055  0.9759509 ]	-0.0689576395482
[ 0.99153933  0.34245915  0.46041266]	-0.0383020898064
[ 0.07449689  0.01724656  0.92723396]	-0.0292453200088
[ 0.98790089  0.32581046  0.08611542]	-0.0153107552648
[ 0.4560131   0.21242281  0.65537425]	-0.0284667381649
[ 0.94170434  0.61411673  0.22710909]	-0.0229381564988
[ 0.38553157  0.07382893  0.86360123]	-0.0379208214624
[ 0.04145303  0.8958234   0.93073906]	-0.0308223392224
[ 0.41653706  0.40748242  0.89161756]	-0.0418782834572
[ 0.42333666  0.75152305  0.61481714]	-0.0263398656245
[ 0.27632221  0.47725747  0.58190622]	-0.0176485028542
[ 0.28501247  0.34183184  0.85178482]	-0.0340178473758
[ 0.8761716   0.73534136  0.1332942 ]	-0.0149861109236
[ 0.01297624  0.08925653  0.8596847 ]	-0.022902552089
[ 0.68502481  0.57763194  0.06376834]	-0.00266379327143
[ 0.72702411  0.69861973  0.73346086]	-0.0454903231978
[ 0.56019365  0.85665938  0.20113387]	-0.00691247818708
[ 0.51217011  0.33391648  0.5867091 ]	-0.0268901543979
[ 0.02364367  0.34607239  0.06668474]	0.0241858990433
[ 0.6108676   0.10229301  0.34735893]	-0.0155347827674
[ 0.32361446  0.25530999  0.60484101]	-0.0202507364857
[ 0.11421602  0.92947465  0.85035548]	-0.0289251310276
[ 0.09604798  0.77957269  0.50488162]	-0.00670471787417
[ 0.80707146  0.19380771  0.17000499]	-0.0128208570081
[ 0.53729391  0.76737847  0.44038772]	-0.0203001700858
[ 0.68381134  0.54129355  0.12155899]	-0.00602432733274
[ 0.69903724  0.81771951  0.80344101]	-0.0490016194819
[ 0.30320286  0.3652592   0.90947503]	-0.0383267041553
[ 0.66041024  0.75167884  0.153751  ]	-0.0076950321896
[ 0.03749232  0.27798071  0.34136722]	0.0071134052464
[ 0.52521935  0.87260514  0.33795507]	-0.0139020063407
[ 0.52627268  0.84073212  0.47836239]	-0.0223979599518
[ 0.41411254  0.55772185  0.24136634]	-0.00263768170175
[ 0.69711516  0.78205474  0.83315901]	-0.0506263019552
[ 0.72224287  0.71057951  0.76152824]	-0.0470458885671
[ 0.14268119  0.45378158  0.6241652 ]	-0.0148320415987
[ 0.99174127  0.00730946  0.65909053]	-0.0493883710576
[ 0.29850289  0.00724784  0.31249912]	-0.000690605327704
[ 0.33934463  0.02329359  0.33613014]	-0.00380412270068
[ 0.54709521  0.89453761  0.35594845]	-0.0159353277627
[ 0.62762363  0.8363105   0.29957504]	-0.015529334108
[ 0.83000675  0.45859479  0.76978368]	-0.0510691506896
[ 0.90931669  0.89416202  0.70950974]	-0.0518825944923
[ 0.86221526  0.84171357  0.01793492]	-0.00772928129764
[ 0.9826535   0.01622297  0.55801401]	-0.0428980259629
[ 0.72595288  0.7940069   0.90176732]	-0.0559888540198
[ 0.28006151  0.78163872  0.54866599]	-0.0167008922472
[ 0.33702155  0.12548973  0.0338879 ]	0.0143841727942
[ 0.49680128  0.3091656   0.42423546]	-0.0163079419984
[ 0.69125668  0.39004024  0.85556413]	-0.0505625081626
[ 0.9170071   0.06745503  0.90632536]	-0.061654818379
[ 0.72896711  0.85733802  0.03575543]	-0.00355929170779
[ 0.70334677  0.30023031  0.73344168]	-0.043332242553
[ 0.3629047   0.94154136  0.04954368]	0.00991262054485
[ 0.36649518  0.20879979  0.45265263]	-0.0125467735795
[ 0.08430983  0.68279739  0.84658413]	-0.0267531819718
[ 0.18108003  0.54721321  0.91978064]	-0.0346489025757
[ 0.92207665  0.96544602  0.7424972 ]	-0.0546167717906
[ 0.98011913  0.74111085  0.4836666 ]	-0.0404792383183
[ 0.37920874  0.88743667  0.04977156]	0.00941483633228
[ 0.74363391  0.72515553  0.29770004]	-0.0196931722897
[ 0.30884046  0.60123362  0.91985232]	-0.0399025141904
[ 0.20382605  0.83337507  0.09286121]	0.0139351728224
[ 0.92408679  0.43943329  0.89488818]	-0.0623741058282
[ 0.99065174  0.06868298  0.01095388]	-0.0100587471178
[ 0.34520944  0.65948821  0.65106446]	-0.0251575653968
[ 0.52134399  0.76818445  0.40813218]	-0.0177034053283
[ 0.34896727  0.3259361   0.57640985]	-0.0197435013296
[ 0.60524896  0.7102031   0.74068372]	-0.0411191826732
[ 0.25132228  0.05422333  0.49518206]	-0.0100820679562
[ 0.6042918   0.37231645  0.4801474 ]	-0.0241835301915
[ 0.3127493   0.16096727  0.79224668]	-0.0309442392731
[ 0.46034844  0.8654744   0.39208232]	-0.0145950699819
[ 0.32642205  0.16364492  0.08332131]	0.0116790420177
[ 0.30169019  0.90668015  0.70113731]	-0.0272288279448
[ 0.72371454  0.22218441  0.13220712]	-0.00728797511293
[ 0.55783824  0.31869197  0.17398439]	-0.00352509798874
[ 0.19817673  0.48121069  0.4467352 ]	-0.00631825675538
[ 0.23173428  0.55786356  0.85689043]	-0.0328670930883
[ 0.13712122  0.95332021  0.30929765]	0.00304257031919
[ 0.5969777   0.20089134  0.13944019]	-0.00261975948185
[ 0.50882484  0.53887506  0.50626959]	-0.0224829033967
[ 0.05281416  0.42816246  0.55047312]	-0.00668938965106
[ 0.80913853  0.93854628  0.46534355]	-0.0331606506837
[ 0.36625142  0.01722512  0.62370115]	-0.0223703430707
[ 0.93785702  0.14853811  0.13665164]	-0.0158564646514
[ 0.10384996  0.78150202  0.35208734]	0.0022845100286
[ 0.19809104  0.07298635  0.99881401]	-0.0386934303915
[ 0.70166366  0.47770182  0.09453585]	-0.00489513959112
[ 0.65563665  0.39392725  0.6824363 ]	-0.038612788723
[ 0.22533978  0.47276686  0.21952489]	0.00646422417579
[ 0.94782443  0.33675034  0.59442563]	-0.0447067138431
[ 0.94252953  0.28774881  0.07821383]	-0.0129078157326
[ 0.51262856  0.18587952  0.95057569]	-0.0486175811321
[ 0.08956775  0.18879613  0.06266853]	0.0222863874889
[ 0.38644925  0.69749649  0.54134834]	-0.0202326614042
[ 0.61619231  0.72630593  0.55283968]	-0.030163554863
[ 0.84981234  0.05993977  0.24643669]	-0.01876861022
[ 0.85867272  0.98503266  0.74521791]	-0.0523188677118
[ 0.16496963  0.7218623   0.14348956]	0.0127381309544
[ 0.9187943   0.83251922  0.58735046]	-0.0446319929492
[ 0.52623631  0.93377828  0.17080531]	-0.0039490851451
[ 0.97928054  0.19860539  0.13595906]	-0.0176154834161
[ 0.08288644  0.10304871  0.70369839]	-0.0162268409149
[ 0.18910555  0.26670748  0.0976429 ]	0.0159574540839
[ 0.53391723  0.26343725  0.26719385]	-0.00808136371249
[ 0.98556315  0.68534915  0.93710328]	-0.0681414835039
[ 0.50605556  0.25887647  0.74052982]	-0.0357861501766
[ 0.03444475  0.07384331  0.78446744]	-0.0191290067012
[ 0.65454449  0.14837593  0.26787529]	-0.0125727309336
[ 0.46284008  0.3723878   0.49076946]	-0.0192012342273
[ 0.98013732  0.44087973  0.05082241]	-0.0132031633135
[ 0.26258888  0.85695034  0.45263446]	-0.0103865405641
[ 0.98200519  0.8202022   0.67451111]	-0.0524184108608
[ 0.91051872  0.51368556  0.26626952]	-0.0237758337094
[ 0.34147158  0.08239141  0.86964197]	-0.0365613467963
[ 0.5203421   0.43376287  0.97240401]	-0.0510097171497
[ 0.36441785  0.89330435  0.34099198]	-0.00775057030543
[ 0.34662665  0.5560006   0.41715788]	-0.0106528717437
[ 0.17115048  0.79521516  0.81252941]	-0.0284779342692
[ 0.60716059  0.12723244  0.12222398]	-0.00175192478573
[ 0.07874441  0.98441241  0.7920578 ]	-0.0241304481519
[ 0.02539038  0.40237146  0.31557893]	0.00878636982907
[ 0.34302372  0.28402308  0.21248542]	0.00278486268257
[ 0.19116781  0.40428327  0.35799049]	-0.000399975029753
[ 0.06785086  0.92290991  0.32127557]	0.00516258419204
[ 0.29819747  0.9683926   0.14503842]	0.00659003976526
[ 0.61115587  0.08810971  0.19716539]	-0.00635579589112
[ 0.07073661  0.69814739  0.27364434]	0.00863387464922
[ 0.97280811  0.52843618  0.0220292 ]	-0.0114248330155
[ 0.70414062  0.90343579  0.99740737]	-0.0612791607142
[ 0.4213726   0.45467001  0.08671894]	0.00680604045325
[ 0.98764397  0.00595885  0.28767102]	-0.0266006780802
[ 0.2972854   0.29299731  0.7078444 ]	-0.0255910084089
[ 0.91663613  0.09045749  0.22544816]	-0.0202428122228
[ 0.24734445  0.86193912  0.50445048]	-0.012950804051
[ 0.94622228  0.89019364  0.13138523]	-0.0181298076422
[ 0.65182091  0.78055128  0.51535045]	-0.029463666832
[ 0.07018445  0.89465921  0.97833071]	-0.0348606967433
[ 0.79986191  0.30589915  0.86593578]	-0.0552598594741
[ 0.19219426  0.87367243  0.12015169]	0.012613161336
[ 0.32151884  0.50020296  0.45559203]	-0.011824277033
[ 0.80443762  0.55080196  0.27904455]	-0.0204452651222
[ 0.37769045  0.39629856  0.42214986]	-0.0117062592312
[ 0.54324793  0.87698821  0.34674884]	-0.0151684283125
[ 0.78821913  0.15829708  0.45138542]	-0.0290991906625
[ 0.77030221  0.39921163  0.61422157]	-0.0390378320387
[ 0.24577872  0.9300704   0.59356206]	-0.0185233616196
[ 0.3832271   0.99018459  0.63089296]	-0.026450301577
[ 0.67359394  0.25068824  0.50435938]	-0.0280453412261
[ 0.62238306  0.41502149  0.07613917]	-0.000428457660672
[ 0.10162778  0.38566803  0.13815011]	0.0166091595669
[ 0.02655973  0.4559902   0.27153908]	0.0112585123719
[ 0.15914343  0.84905941  0.26020796]	0.0054737150554
[ 0.25003876  0.89815958  0.23704709]	0.00311717275009
[ 0.07079332  0.80733833  0.87402323]	-0.028266079482
[ 0.9437974   0.42876414  0.61635018]	-0.0461622483402
[ 0.47328414  0.12891785  0.56098638]	-0.0231509999655
[ 0.71796348  0.38257121  0.35412784]	-0.0210636930942
[ 0.03056889  0.88637004  0.52723003]	-0.00578549969283
[ 0.48970728  0.60907848  0.35296926]	-0.0125996794161
[ 0.64852574  0.51494751  0.6694543 ]	-0.03790811857
[ 0.15441869  0.07190564  0.18678134]	0.0125030322844
[ 0.87732182  0.20746922  0.38612443]	-0.0288205915702
[ 0.99152771  0.77654804  0.38476468]	-0.0350179018027
[ 0.13287964  0.85864443  0.87023796]	-0.0306628494443
[ 0.99150784  0.94574892  0.72370677]	-0.0561755168159
[ 0.2371699   0.62961641  0.76794119]	-0.0278849141771
[ 0.29340326  0.04415242  0.03922469]	0.0160430282108
[ 0.65415756  0.44915243  0.29470582]	-0.0151083979856
[ 0.91023625  0.39805501  0.35422892]	-0.0287690359562
[ 0.31047241  0.58760037  0.5257713 ]	-0.0159252328218
[ 0.31779417  0.74645095  0.94405951]	-0.0421758767996
[ 0.64048391  0.05721422  0.20635445]	-0.00798842465967
[ 0.92502682  0.77879933  0.73283265]	-0.0535765319753
[ 0.98953942  0.35927401  0.12149833]	-0.0176329093656
[ 0.22288366  0.33080939  0.21972925]	0.0069823262584
[ 0.93929183  0.22898841  0.49078247]	-0.0377264264491
[ 0.29869134  0.79259853  0.15068305]	0.00676257373339
[ 0.5021553   0.79894998  0.22545385]	-0.0059079074092
[ 0.23766219  0.71001987  0.90062682]	-0.0362305757844
[ 0.1198521   0.98206766  0.63231965]	-0.0160307724197
[ 0.15377615  0.06317493  0.79937142]	-0.0247532690018
[ 0.87389967  0.95972538  0.9560585 ]	-0.0656885016805
[ 0.96653631  0.8606954   0.18355555]	-0.0220256432381
[ 0.46565012  0.21521471  0.38610779]	-0.0124596802538
[ 0.77861629  0.64647739  0.10122739]	-0.0088797620011
[ 0.3847239   0.02274248  0.72688993]	-0.0294068158729
[ 0.04912909  0.29165629  0.89778674]	-0.027278947014
[ 0.22842708  0.80981376  0.35431319]	-0.00289522788833
[ 0.46331197  0.92031418  0.38993949]	-0.014749702194
[ 0.49500646  0.08643321  0.17740294]	-0.000524636786319
[ 0.29689863  0.26107748  0.64751993]	-0.0218043647159
[ 0.63309926  0.71375009  0.51549411]	-0.0285236774415
[ 0.06616856  0.75554831  0.87657305]	-0.0280794190287
[ 0.0498362   0.52848798  0.05365702]	0.02338077674
[ 0.99564695  0.15220357  0.2211464 ]	-0.0233135090587
[ 0.19408283  0.72358491  0.1499769 ]	0.0111791483073
[ 0.19284748  0.525175    0.60607193]	-0.0159442681275
[ 0.18864885  0.07734081  0.38999018]	-0.00125181514337
[ 0.40089056  0.06987342  0.96023965]	-0.0444055685259
[ 0.46704517  0.24424274  0.95932   ]	-0.0475139669324
[ 0.62770524  0.50548725  0.03717384]	0.00145701991232
[ 0.16989364  0.48794186  0.57521284]	-0.0130378385421
[ 0.46567236  0.93450017  0.57417245]	-0.0261072059336
[ 0.13355781  0.5288438   0.24625733]	0.00831786833961
[ 0.97349842  0.49066569  0.66786902]	-0.0506706464341
[ 0.76010607  0.71384564  0.28578758]	-0.0195887387552
[ 0.12005181  0.28469961  0.66902669]	-0.0161481428442
[ 0.02621623  0.45100804  0.83917246]	-0.0232831274074
[ 0.87237975  0.62176598  0.77885281]	-0.0538053043487
[ 0.57033401  0.97395617  0.33057829]	-0.015557191368
[ 0.29362273  0.0966503   0.21153065]	0.00538031097351
[ 0.76104718  0.83595149  0.43342678]	-0.0289901199036
[ 0.95816865  0.49705322  0.58896171]	-0.0452743522988
[ 0.66285554  0.88361878  0.9613647 ]	-0.0573805969898
[ 0.190964    0.94669711  0.32788545]	-0.000212096261938
[ 0.26792019  0.60592178  0.27844642]	0.000775175036765
[ 0.46910009  0.02004064  0.45394369]	-0.016133333137
[ 0.48374951  0.49384914  0.4966931 ]	-0.0207644561659
[ 0.22707876  0.5815028   0.76128335]	-0.0269311409829
